<?xml version="1.0"?>
<opencv_storage>
<my_nn type_id="opencv-ml-ann-mlp">
  <layer_sizes type_id="opencv-matrix">
    <rows>1</rows>
    <cols>3</cols>
    <dt>i</dt>
    <data>
      784 30 10</data></layer_sizes>
  <activation_function>SIGMOID_SYM</activation_function>
  <f_param1>6.6666666666666663e-001</f_param1>
  <f_param2>1.7159000000000000e+000</f_param2>
  <min_val>-9.4999999999999996e-001</min_val>
  <max_val>9.4999999999999996e-001</max_val>
  <min_val1>-9.7999999999999998e-001</min_val1>
  <max_val1>9.7999999999999998e-001</max_val1>
  <training_params>
    <train_method>BACKPROP</train_method>
    <dw_scale>1.0000000000000000e-003</dw_scale>
    <moment_scale>0.</moment_scale>
    <term_criteria><epsilon>1.1920928955078125e-007</epsilon>
      <iterations>30</iterations></term_criteria></training_params>
  <input_scale>
    1. 0. 1. 0. 1. 0. 1. 0. 1. 0. 1. 0. 1. 0. 1. 0. 1. 0. 1. 0. 1. 0. 1.
    0. 2.1038466639100939e+000 -4.4180779942111972e-003
    7.3465782237226585e-001 -5.7548196085827489e-003
    1.1340324793763241e+000 -4.0825169257547667e-003
    2.7216779505031781e+001 -4.0825169257547667e-003 1. 0. 1. 0. 1. 0.
    1. 0. 1. 0. 1. 0. 1. 0. 1. 0. 1. 0. 1. 0. 1. 0. 1. 0. 1. 0. 1. 0. 1.
    0. 1. 0. 1.5309438471580373e+001 -4.0825169257547667e-003
    5.1378417543335395e+000 -4.7096882748057442e-003
    9.4786496244496321e-001 -8.7993464013640752e-003
    4.7730511152646854e-001 -1.1590559124901078e-002
    3.3760533284073685e-001 -1.4758979800687546e-002
    3.0085576674119052e-001 -1.9284854648110313e-002
    2.0537012327968251e-001 -2.4671797476665858e-002
    1.8086495511061523e-001 -2.9071027118112890e-002
    1.7563481948961016e-001 -3.0592658308098594e-002
    1.7563787008994008e-001 -3.1164012749625037e-002
    1.6883284765585466e-001 -3.1962871942047548e-002
    1.7342828322169204e-001 -3.0202535523057669e-002
    1.6749403091669038e-001 -3.1310217512693320e-002
    1.8472760188024673e-001 -2.8383396028899912e-002
    2.3092249674211657e-001 -2.3119190632164905e-002
    2.6906821685325510e-001 -1.9166625980513538e-002
    3.1165625491435334e-001 -1.6772300785307448e-002
    5.1465024036334295e-001 -1.0996360135763427e-002
    8.2560602957106433e-001 -8.3248607981748976e-003
    1.2398189311055090e+000 -4.3806935565727980e-003 1. 0. 1. 0. 1. 0.
    1. 0. 1. 0. 1. 0. 3.8273596178950933e+000 -4.0825169257547667e-003
    7.7076371143579658e+000 -5.3953459800505765e-003
    1.2262463813256379e+000 -8.5224123502131831e-003
    2.1857209069202939e+000 -1.1985036306279610e-002
    3.7480844479353959e-001 -1.7653477749775714e-002
    2.0022325818265649e-001 -2.7710898932479657e-002
    1.4013031729855807e-001 -3.7020094324990732e-002
    1.0294031691548404e-001 -5.2151280221332807e-002
    7.7337564294725908e-002 -6.7036200730668419e-002
    6.4350144069828780e-002 -8.3017048362084941e-002
    5.3134064659327226e-002 -9.9379297835572672e-002
    4.5528222999621615e-002 -1.1518412777789271e-001
    4.0333765593801335e-002 -1.2913325615454091e-001
    3.8172050383375566e-002 -1.3839467726744728e-001
    3.7314415010388242e-002 -1.3888363076174820e-001
    3.8862636726537038e-002 -1.3184343822661324e-001
    4.2965532185901718e-002 -1.2042952234827012e-001
    4.9839378548531522e-002 -1.0189079484830869e-001
    6.5388748483052359e-002 -7.8604904363951955e-002
    8.9976498603427962e-002 -5.6995613040341439e-002
    1.3390326577294903e-001 -3.9657683879755073e-002
    2.5247440459466680e-001 -2.3728386125155435e-002
    4.0004769536487894e-001 -1.4088346338433153e-002
    9.0704718335127554e-001 -7.8308406829326795e-003 1. 0. 1. 0. 1. 0.
    1. 0. 1.6603229489473221e+000 -5.3683775349296749e-003
    1.5163428875843565e+000 -8.8706058923684866e-003
    1.1709417775958955e+000 -1.4070817027444010e-002
    3.1744113434375015e-001 -2.2146809806048971e-002
    1.6587883755403252e-001 -3.5180136797917733e-002
    1.0075751730349713e-001 -5.5023680199439789e-002
    6.8516103777253992e-002 -7.9096132135524966e-002
    4.8580266476534253e-002 -1.0764901248535225e-001
    3.7687844665627961e-002 -1.3716993570650837e-001
    3.0729268372916497e-002 -1.6710576141191991e-001
    2.6462458803787101e-002 -1.9600875548259125e-001
    2.3151210409567968e-002 -2.2449111368547134e-001
    2.0925208082991271e-002 -2.4865599141752553e-001
    1.9801368144819295e-002 -2.6211797063462611e-001
    2.0007967342284324e-002 -2.6259690164666721e-001
    2.0980704578722208e-002 -2.4785590321914444e-001
    2.3255946689967451e-002 -2.2194700322681937e-001
    2.7278164226132485e-002 -1.8721140499215855e-001
    3.5205639871294270e-002 -1.4764013164625320e-001
    4.7552439450484485e-002 -1.0816436385538704e-001
    7.2393683818392299e-002 -7.6812111654108173e-002
    1.1396537993357475e-001 -4.7075299604561950e-002
    1.8633604677174664e-001 -3.0201967580920600e-002
    5.4890432975324055e-001 -1.5241243556148311e-002
    1.8870427315559291e+000 -5.2837196483566011e-003 1. 0. 1. 0.
    6.4460793564548942e+000 -4.0825169257547658e-003
    1.4881961063114144e+000 -7.7634230212578776e-003
    1.0378574750912513e+000 -1.4893254767559455e-002
    2.9626314199892556e-001 -2.3962750468679763e-002
    1.2271782724507993e-001 -5.0340898033052542e-002
    7.5503214617767808e-002 -7.8767470263075956e-002
    4.8023122663132030e-002 -1.1618154027353761e-001
    3.3763819709914628e-002 -1.6124756197962478e-001
    2.5250311458977676e-002 -2.1196163534976650e-001
    2.0052094965084099e-002 -2.6689873121059338e-001
    1.6720901271095080e-002 -3.2567801032750021e-001
    1.4433780328490018e-002 -3.9024154804428057e-001
    1.2838641258765621e-002 -4.5207637577719822e-001
    1.1935670058468253e-002 -4.9939798378235850e-001
    1.1566812160518124e-002 -5.2342832397506245e-001
    1.1674165860786076e-002 -5.1761889440708375e-001
    1.2286269902340810e-002 -4.8090241906897768e-001
    1.3504748722938009e-002 -4.2307969402109191e-001
    1.5561919052793203e-002 -3.5674039490496118e-001
    1.9127727707166170e-002 -2.8368364842044325e-001
    2.5034828244085983e-002 -2.1683666135332635e-001
    3.4856099854641463e-002 -1.5852438026891422e-001
    5.0904882032675139e-002 -1.0878458131852732e-001
    8.2190903785030009e-002 -7.0922530876102396e-002
    1.8750171775889582e-001 -3.8953481864410604e-002
    4.8068752630553679e-001 -1.4252385154959166e-002
    2.8379498678091473e+000 -5.7704980645452656e-003 1. 0. 1. 0.
    1.1536420576779074e+000 -1.1901740561710412e-002
    3.4806876020438438e-001 -2.2050155958947753e-002
    1.3108076953627013e-001 -5.1838074992610297e-002
    6.1951416938616229e-002 -9.0659703547970996e-002
    3.8928522875927463e-002 -1.3966710556553796e-001
    2.7267172044038460e-002 -1.9708212055276858e-001
    2.0310544526470912e-002 -2.6438472766459992e-001
    1.6058619090491534e-002 -3.4073044164379185e-001
    1.3413662972845386e-002 -4.2253574910981878e-001
    1.1659149742615876e-002 -5.1540864854364965e-001
    1.0458320244453354e-002 -6.1603532693124363e-001
    9.7011251647249417e-003 -7.1598329682613437e-001
    9.3313156332037895e-003 -7.9412046598170660e-001
    9.2169012100847113e-003 -8.3504925263841268e-001
    9.2684362963140459e-003 -8.2418581131767721e-001
    9.5139360324611212e-003 -7.6283928350277330e-001
    1.0108144176694272e-002 -6.6655949828398464e-001
    1.1171070003323126e-002 -5.5625039790047115e-001
    1.3031960000588465e-002 -4.4764565402688039e-001
    1.6161069925254887e-002 -3.4762461409223266e-001
    2.1051996788279799e-002 -2.6084090667243637e-001
    2.8664363472002463e-002 -1.9030605326636274e-001
    4.3799712526290821e-002 -1.3108012967263930e-001
    8.8715176669426937e-002 -7.4846037383439853e-002
    2.2544219187530931e-001 -3.1930129109272974e-002
    1.7465783701487902e+000 -8.2089183396993146e-003 1. 0.
    3.0382652336798213e+001 -5.5701529284130054e-003
    5.6952462131221326e-001 -1.5661927086085863e-002
    1.6422848396732007e-001 -3.6365660633163578e-002
    7.0587879827199648e-002 -7.9024307931213802e-002
    4.0514631513379903e-002 -1.3328908621586855e-001
    2.6780784428177353e-002 -1.9915441070732662e-001
    1.9322387991394883e-002 -2.7542969146413893e-001
    1.5052602089655870e-002 -3.6333594608959097e-001
    1.2418851013265312e-002 -4.6308053298899382e-001
    1.0822571024019725e-002 -5.7484518896921732e-001
    9.8544086338043825e-003 -6.9880387280738732e-001
    9.2830187890575854e-003 -8.2877368352491809e-001
    9.0074868253702551e-003 -9.5689204766999747e-001
    8.9149207576242825e-003 -1.0564726393771116e+000
    8.9019724135588046e-003 -1.1047183078736826e+000
    8.9022737607425007e-003 -1.0835076091183173e+000
    8.9165573854273171e-003 -9.9895164574737372e-001
    9.1017039348284430e-003 -8.7474762363395098e-001
    9.6395423414931299e-003 -7.2455973459718970e-001
    1.0744575840055575e-002 -5.8060589820293118e-001
    1.2804502010278487e-002 -4.5215876382959225e-001
    1.6164493498503400e-002 -3.3932343107123353e-001
    2.1755020593201647e-002 -2.4893037280300365e-001
    3.2098587832302343e-002 -1.7293970156995084e-001
    5.6103241780279242e-002 -1.0410424039345649e-001
    1.2964213042516703e-001 -4.8317622009459750e-002
    4.8541314454218504e-001 -1.4708018279628208e-002
    5.2117237350060854e+000 -4.0825169257547667e-003
    6.7049033577396222e-001 -1.3231009292606188e-002
    2.4375065889415110e-001 -2.6243820940936934e-002
    9.9317704767939163e-002 -5.9158590845022965e-002
    4.8869076680976266e-002 -1.1300485291708950e-001
    3.0097579331474431e-002 -1.7844152508780120e-001
    2.0746524026233240e-002 -2.5800481011643789e-001
    1.5629562512516047e-002 -3.5091181161850776e-001
    1.2649151806693614e-002 -4.5909822417438662e-001
    1.0837898273378558e-002 -5.8414555692950476e-001
    9.8279264066316891e-003 -7.2495420680603806e-001
    9.3051070721609456e-003 -8.7563926623715083e-001
    9.0948880042541775e-003 -1.0148029044892122e+000
    9.0573545680194597e-003 -1.1321685662228851e+000
    9.0554108274627180e-003 -1.2021883425077196e+000
    9.0808663884127377e-003 -1.2295375038647796e+000
    9.0723709836048102e-003 -1.2096976992530375e+000
    9.0356182139097012e-003 -1.1446098274798200e+000
    9.0106171506072388e-003 -1.0231255420609500e+000
    9.2054011907544645e-003 -8.6295358399973732e-001
    9.8953953711339582e-003 -6.9048023851396068e-001
    1.1378785206741562e-002 -5.3290132006238677e-001
    1.4125519371424632e-002 -3.9754744006276055e-001
    1.8925092601564067e-002 -2.8768127889100548e-001
    2.8009150098363078e-002 -1.9700702540851978e-001
    4.6932781744196905e-002 -1.2122893967131874e-001
    1.1071645081439330e-001 -5.6808610912865203e-002
    4.8271828388700305e-001 -1.5390667951263946e-002
    1.2357769628161059e+000 -5.0254929821188302e-003
    3.4084327675239168e-001 -1.7320519180300704e-002
    1.3079811498430369e-001 -4.3080539138663484e-002
    6.4712412758713506e-002 -8.5248896947691236e-002
    3.7207419379852932e-002 -1.3945836882493945e-001
    2.4858152431941404e-002 -2.1088330755129384e-001
    1.7838905150873663e-002 -3.0001797729333762e-001
    1.3760719731315114e-002 -4.0728152617562596e-001
    1.1354928120847716e-002 -5.3288847995060140e-001
    9.9935311401737701e-003 -6.8062942536381499e-001
    9.3252364895925095e-003 -8.4198850255578495e-001
    9.0567574469155917e-003 -9.8243825473033908e-001
    9.0001864657767855e-003 -1.0749410206177445e+000
    8.9792216175286245e-003 -1.1079807253900844e+000
    8.9938924314447530e-003 -1.1065909866747210e+000
    9.0251680310060711e-003 -1.1041449232725029e+000
    9.0281449405893929e-003 -1.1080246799657834e+000
    9.0074291609982537e-003 -1.1002043281838867e+000
    8.9779656800706639e-003 -1.0437866693996500e+000
    9.0743768988995922e-003 -9.1297850442442741e-001
    9.5603998434639730e-003 -7.3919131377694225e-001
    1.0794544642347401e-002 -5.7100550467303579e-001
    1.3318540978204832e-002 -4.2367100161696558e-001
    1.8229752003881883e-002 -2.9819620669549857e-001
    2.7511175302463796e-002 -1.9768613533173737e-001
    4.6299027012198526e-002 -1.2068381546044687e-001
    1.1199645993336554e-001 -5.3935628496243289e-002
    4.9683176133878221e-001 -1.3505543379059230e-002
    1.2135025916301894e+000 -5.9057126126002548e-003
    2.6564179405804561e-001 -2.1109667901146024e-002
    1.0349084381728776e-001 -5.2989036881848292e-002
    5.4134811331694038e-002 -9.3078492356859194e-002
    3.3829270306457576e-002 -1.5039873374962087e-001
    2.3065104567247429e-002 -2.2619102328598756e-001
    1.6574686520695520e-002 -3.2364534010158574e-001
    1.2813608645905221e-002 -4.4213121716537451e-001
    1.0680765347830560e-002 -5.8424747721514458e-001
    9.5801693578614795e-003 -7.4857559262355899e-001
    9.0918936977612066e-003 -9.0044933236446290e-001
    8.9727262193568576e-003 -9.9238770713310409e-001
    8.9819519055079709e-003 -9.9508844582905953e-001
    9.0820062361602442e-003 -9.4955659857977437e-001
    9.1764797612000990e-003 -9.0890462620353851e-001
    9.1956015418566493e-003 -9.1393597102263968e-001
    9.1467019539129609e-003 -9.5430483674302435e-001
    9.0464398169267015e-003 -1.0030879428764543e+000
    8.9980387824558083e-003 -9.9948655135463493e-001
    9.0926540338881860e-003 -9.0150861177674246e-001
    9.5622567025844003e-003 -7.3668151560828854e-001
    1.0769019356842361e-002 -5.6758942145055025e-001
    1.3360669430876521e-002 -4.2017189920780101e-001
    1.8851421857897347e-002 -2.9017459542242080e-001
    3.0444269756015222e-002 -1.8148235125157422e-001
    5.5290631176703513e-002 -1.0493977495234404e-001
    1.3419187001379709e-001 -4.7213172933187608e-002
    5.0079854522521305e-001 -1.4130865617771429e-002
    8.6592077801118750e-001 -5.7728051867412507e-003
    2.2961390400521112e-001 -2.2632277138113641e-002
    1.0095565869099236e-001 -5.2803174684012043e-002
    5.5061939830372622e-002 -9.2205806740944821e-002
    3.4378371408908800e-002 -1.4745169983709391e-001
    2.3012820556852713e-002 -2.2728458804171869e-001
    1.6184974494829037e-002 -3.3242831639121695e-001
    1.2441736626448881e-002 -4.6269615812556164e-001
    1.0366445817928003e-002 -6.1903352143624946e-001
    9.4040119553180906e-003 -7.8428268532505208e-001
    9.0616285729332741e-003 -9.0820987918795304e-001
    9.0276598486294709e-003 -9.3137298385228173e-001
    9.2614461294292412e-003 -8.6957693484385423e-001
    9.6085890673250074e-003 -7.9705952732714902e-001
    9.7127245345455509e-003 -7.7141210191978882e-001
    9.5067723677463162e-003 -8.0356009282996355e-001
    9.3102427461099514e-003 -8.7393929706678419e-001
    9.1123038468280335e-003 -9.5157541370809595e-001
    9.0526943272145437e-003 -9.6213106545131555e-001
    9.1642554906533492e-003 -8.6347325893960780e-001
    9.7610766420335414e-003 -7.0132424639191082e-001
    1.1122250632863200e-002 -5.3739656439070949e-001
    1.3932455672998783e-002 -3.9677102693919941e-001
    2.0093294770402510e-002 -2.7122264169335480e-001
    3.4631988773663712e-002 -1.5932446435323991e-001
    7.0653342057910351e-002 -8.1258408700802684e-002
    1.6657039989223177e-001 -3.6950867042760079e-002
    6.3381134461946831e-001 -1.1873399189204707e-002
    1.1890742635516922e+000 -7.0551739637400397e-003
    2.7187404253543629e-001 -2.0771176849707331e-002
    1.1215355577505325e-001 -4.7203562399790323e-002
    6.4047150216850077e-002 -8.2003836232647606e-002
    3.7699984436756581e-002 -1.3745728492178422e-001
    2.3569637058332028e-002 -2.2518195549159836e-001
    1.6017065431567844e-002 -3.3849238108059060e-001
    1.2117447090558515e-002 -4.8293499702811588e-001
    1.0115402446214745e-002 -6.4828821904598688e-001
    9.2857287761024532e-003 -8.0980531132096956e-001
    9.0752699606343259e-003 -8.9646046061893581e-001
    9.1895703573481244e-003 -8.7178559265499089e-001
    9.6099674381496681e-003 -7.8497609556634629e-001
    9.9879206995551022e-003 -7.3254173735263994e-001
    9.7307756351548563e-003 -7.4095055945724220e-001
    9.3907556905952812e-003 -8.0221046978473176e-001
    9.2634071053515083e-003 -9.0126281481954318e-001
    9.0965707880393890e-003 -9.7772292777300929e-001
    9.0565166767232076e-003 -9.5554794253494879e-001
    9.2655007477132657e-003 -8.2490289881853818e-001
    1.0100768352726762e-002 -6.5598783516841030e-001
    1.1750607276521729e-002 -4.9936418652616171e-001
    1.4583948964667304e-002 -3.6957330910853065e-001
    2.0545306471433603e-002 -2.5846440689370354e-001
    3.7518820030696919e-002 -1.4969571472681045e-001
    1.0108848101217496e-001 -6.1111356387893508e-002
    2.2499252054679278e-001 -2.8011568808075701e-002
    1.1173591407938479e+000 -9.1250996498164240e-003
    1.3958819197838115e+000 -5.3043512951784838e-003
    3.7172987183149653e-001 -1.6238399901172540e-002
    1.5030415156391430e-001 -3.6378614816852721e-002
    7.8039041670625295e-002 -6.8582010470840019e-002
    4.1503882772181609e-002 -1.2736849891403002e-001
    2.3538333232684960e-002 -2.2614335961635912e-001
    1.5462427079906763e-002 -3.5220290631899825e-001
    1.1648493961269058e-002 -5.0758351264543122e-001
    9.8511889908257204e-003 -6.7944963961590432e-001
    9.1766156748710921e-003 -8.2825104798213767e-001
    9.0795319460043253e-003 -8.8883003574129060e-001
    9.2432547929562799e-003 -8.4190091143889212e-001
    9.6169336711802098e-003 -7.6653452789534315e-001
    9.7040862635580302e-003 -7.7020475479573480e-001
    9.1824004548704888e-003 -8.2034371951753815e-001
    9.0221486619736380e-003 -9.1768349044746200e-001
    9.1039929428001869e-003 -1.0290959404025219e+000
    9.0004175478489486e-003 -1.0582789957353820e+000
    8.9891423011017220e-003 -9.6567404305680271e-001
    9.3999912450939676e-003 -7.9447676337845186e-001
    1.0527038572582560e-002 -6.1674936335832320e-001
    1.2285167278453694e-002 -4.7007288390074897e-001
    1.4959388512931451e-002 -3.5512441443246612e-001
    2.0091687812791130e-002 -2.5540754464498211e-001
    3.5817150554283542e-002 -1.5382451343799078e-001
    1.1834017383780147e-001 -5.2454282053605500e-002
    2.6955335370853167e-001 -2.1505865070045684e-002
    9.7593261748757754e-001 -9.9219816111237036e-003
    7.6547192357901865e+000 -4.0825169257547667e-003
    5.9914440434565353e-001 -1.0934385379308176e-002
    2.0833055220658958e-001 -2.5544797876397993e-002
    9.3973239798281594e-002 -5.7073080970823017e-002
    4.2724174432875753e-002 -1.2466202029939263e-001
    2.2427537614770596e-002 -2.3849817291840633e-001
    1.4606786361226609e-002 -3.7325889731751249e-001
    1.1204170363603227e-002 -5.3313606806675962e-001
    9.6664264279342823e-003 -7.0209413981322266e-001
    9.1351227959779544e-003 -8.3745004990550431e-001
    9.0833794130886179e-003 -8.8007424931675216e-001
    9.2319999839093215e-003 -8.4101427266750906e-001
    9.4027437080550415e-003 -8.1679095851072969e-001
    9.1982651471546207e-003 -8.9192403730482583e-001
    8.7863379291949449e-003 -9.7855056346064451e-001
    8.9601106040964398e-003 -1.1108034291517508e+000
    9.0953034118440544e-003 -1.1806299570947056e+000
    8.9167596206221351e-003 -1.1288577554289330e+000
    8.9646163171245557e-003 -9.7607041281396068e-001
    9.5517249996382881e-003 -7.7519539522147773e-001
    1.0763916272172904e-002 -5.9444660485818457e-001
    1.2388528244233175e-002 -4.6091023791539754e-001
    1.4829329311590322e-002 -3.5550054572089246e-001
    1.9316476802955316e-002 -2.6354918038032160e-001
    3.2238662755345197e-002 -1.6450368713065402e-001
    1.0178387638579016e-001 -5.9513032522771507e-002
    2.8160676310321775e-001 -2.3368667891515354e-002
    6.8137948719919539e-001 -7.4043237608979236e-003
    2.1677081021706726e+000 -4.0825169257547667e-003
    9.6828429446622244e-001 -7.9883454293463354e-003
    3.3778067000818779e-001 -1.8296452958776840e-002
    1.1012713424410198e-001 -5.1339434532362942e-002
    4.2193078163128728e-002 -1.2934639719891805e-001
    2.0849796247658994e-002 -2.5752139340050229e-001
    1.3846410772487106e-002 -3.9501132961156366e-001
    1.0897630979309679e-002 -5.5042172292818203e-001
    9.5907413426751294e-003 -7.0732308831278545e-001
    9.1408352561085510e-003 -8.2604981707907066e-001
    9.1278995218893790e-003 -8.6785315071101776e-001
    9.2266829733360003e-003 -8.6074372211415462e-001
    9.2409831619656383e-003 -9.0403567970277843e-001
    8.9645791564348255e-003 -1.0347035295982636e+000
    8.7929712365879820e-003 -1.1454361823194157e+000
    9.1305985089769198e-003 -1.2742078920823614e+000
    9.1042142617443842e-003 -1.2481935412875207e+000
    8.8985315860213837e-003 -1.1397750920942384e+000
    9.0031104051283874e-003 -9.6328344629334939e-001
    9.5911179236369565e-003 -7.6301131574111825e-001
    1.0642844571430145e-002 -5.9702704002420259e-001
    1.2120770906235662e-002 -4.7201998945292917e-001
    1.4424704567579208e-002 -3.6837041207106841e-001
    1.8700098612517119e-002 -2.7332531634520335e-001
    3.0303960202343848e-002 -1.7338663362772719e-001
    8.4045739185599391e-002 -6.8942719853947176e-002
    2.6657282114179148e-001 -2.4644657314558623e-002
    3.1510835765894534e+000 -6.9849019281066219e-003
    6.5049273574319830e+000 -4.7702800621167874e-003
    1.0834727644497475e+000 -4.1894280225390238e-003
    4.1348683773770312e-001 -1.8648256381970412e-002
    1.0536764207332489e-001 -5.3272123704905180e-002
    3.9437687853005290e-002 -1.4042051677981554e-001
    1.9237766378276837e-002 -2.7718062364316937e-001
    1.3302078070767992e-002 -4.1220900758168094e-001
    1.0818343387599577e-002 -5.5400339815306554e-001
    9.6864675984830468e-003 -6.9200544270492148e-001
    9.2448693226821633e-003 -7.9258313982720718e-001
    9.2135184390030808e-003 -8.4194083559182187e-001
    9.2290378319375942e-003 -8.6976698260718999e-001
    9.1260415072594771e-003 -9.5866434691792879e-001
    8.8804006446702895e-003 -1.0941026571060872e+000
    8.8797964875475550e-003 -1.2048945535106514e+000
    9.1468978002377660e-003 -1.2724254103359656e+000
    8.9802249753631255e-003 -1.1836340627652491e+000
    8.8799652257232943e-003 -1.0783524891312286e+000
    9.1038267435211984e-003 -9.2258453333646129e-001
    9.6005143329042260e-003 -7.5248127303585577e-001
    1.0462540184554626e-002 -6.0978718332237880e-001
    1.1799828497338932e-002 -4.8675393868849515e-001
    1.4117684561402858e-002 -3.8089677652984794e-001
    1.8689568617624490e-002 -2.7829889045759920e-001
    3.0110332991676945e-002 -1.7549155193650753e-001
    7.1349130087979176e-002 -7.7026142538646050e-002
    1.9988510513655666e-001 -2.9626303999656638e-002
    8.4094525335208525e-001 -9.1102402446475907e-003
    6.1237753886321498e+000 -4.0825169257547667e-003
    1.6909102611898854e+000 -6.7072773693865459e-003
    2.9060222872968322e-001 -2.1601432335573118e-002
    9.7449342839386846e-002 -6.0707692277510023e-002
    3.5128318226281312e-002 -1.5702241152753660e-001
    1.7978327035971048e-002 -2.9716316829999756e-001
    1.2972135741630021e-002 -4.2230679805745347e-001
    1.0926611684804018e-002 -5.4572670683442071e-001
    9.9394243167690299e-003 -6.5910028912336482e-001
    9.5170892642893745e-003 -7.4125055232891279e-001
    9.4183173905225872e-003 -7.8837956472434367e-001
    9.3234438830669935e-003 -8.3396729322086094e-001
    9.0908602873452683e-003 -9.1941339753528917e-001
    8.8553309504785412e-003 -1.0259556200619726e+000
    8.8775613412684518e-003 -1.1227755144981371e+000
    8.9860571702642302e-003 -1.1450631619152505e+000
    8.9169675187790176e-003 -1.0794597021434531e+000
    8.9903200414028113e-003 -9.9988631339674205e-001
    9.2156451799928485e-003 -8.7891758398800457e-001
    9.6126381809093359e-003 -7.4358354374596913e-001
    1.0327951414885607e-002 -6.1562164263755803e-001
    1.1728731090174187e-002 -4.9307976460795289e-001
    1.4212188896869156e-002 -3.7987428084700636e-001
    1.9203497078539213e-002 -2.7351764929762651e-001
    3.0903316836217960e-002 -1.7353912085962375e-001
    6.5301956507944486e-002 -8.4050148221375340e-002
    1.7839395414126039e-001 -3.4162442218051363e-002
    7.2680060806126534e-001 -8.9396474791535643e-003 1. 0.
    1.2263737007433526e+000 -8.9320884537474176e-003
    2.2636152789709318e-001 -2.5397763430053854e-002
    7.7516311632616741e-002 -7.3900175694955175e-002
    2.9881229021335241e-002 -1.7786004742175898e-001
    1.6917332253984091e-002 -3.1338342960570287e-001
    1.2825042487910698e-002 -4.2901306127159833e-001
    1.1106879955347627e-002 -5.3508893613681163e-001
    1.0267557252323577e-002 -6.2078198750601798e-001
    9.8628811810199234e-003 -6.8268923835054318e-001
    9.6874184941051992e-003 -7.2347013698264284e-001
    9.4821683198973647e-003 -7.6555897899305758e-001
    9.2097577685446678e-003 -8.2507042481961534e-001
    9.0180135158619921e-003 -9.1939023544776177e-001
    8.9352815371610324e-003 -1.0062601332296954e+000
    8.9470083282042461e-003 -1.0328150547988861e+000
    9.0041800398750205e-003 -1.0106726878790984e+000
    9.1032483615716333e-003 -9.5150929723216771e-001
    9.2356390105956653e-003 -8.5546568645152354e-001
    9.5820198680995929e-003 -7.4032106833884559e-001
    1.0336779490160927e-002 -6.1326579426167072e-001
    1.1888667060846268e-002 -4.8515629201913280e-001
    1.4755469135091659e-002 -3.6804197776930747e-001
    2.0318339514053187e-002 -2.6078182399496985e-001
    3.2644014383103000e-002 -1.6833375676862808e-001
    6.2500684961346781e-002 -8.8542637028574608e-002
    1.7109776495512422e-001 -3.5936233899407921e-002
    1.2057200212717352e+000 -1.0710812855630580e-002
    3.1084035706307054e+000 -5.9059667841983403e-003
    1.1947550115224044e+000 -6.3521141445941169e-003
    1.8459952406871327e-001 -3.3320214094402743e-002
    6.0063061530205179e-002 -9.1304862985141400e-002
    2.6124691582275841e-002 -1.9910803065973620e-001
    1.6062765900929157e-002 -3.2796741246305139e-001
    1.2574762178659240e-002 -4.3899542662547630e-001
    1.1092271024320957e-002 -5.3445408811407946e-001
    1.0397746220095131e-002 -6.0594789680655092e-001
    9.9918239700375680e-003 -6.5940509392984525e-001
    9.7265660223358908e-003 -6.9784836599699163e-001
    9.5376283492236060e-003 -7.3042289419662365e-001
    9.3973170455657826e-003 -7.8112566692492813e-001
    9.1631363690461050e-003 -8.7168855191159800e-001
    8.9947413603606984e-003 -9.5845445408422691e-001
    9.0127820363154667e-003 -1.0112466121564123e+000
    9.0746977830615579e-003 -1.0104488437684862e+000
    9.0740873457440842e-003 -9.5294507586676680e-001
    9.1725874047577736e-003 -8.5872463833459933e-001
    9.5567783204039188e-003 -7.3231139362819653e-001
    1.0492049895120014e-002 -5.9491059544069125e-001
    1.2272183566913935e-002 -4.6342915009115859e-001
    1.5468821882370341e-002 -3.4877114414893740e-001
    2.1602314695750677e-002 -2.4588474663859947e-001
    3.4548855257881220e-002 -1.5820093566860099e-001
    6.5794896362632041e-002 -8.5437962671695844e-002
    2.0501057750388216e-001 -3.1557961563764260e-002
    8.0112838185817015e-001 -9.7604141189720391e-003
    1.6330067703019068e+001 -4.0825169257547676e-003
    9.2599146384527464e-001 -1.1281662667848262e-002
    1.3885709865451468e-001 -3.9757101629765125e-002
    5.0812940557092921e-002 -1.0385233479292914e-001
    2.4299944569476883e-002 -2.1198097145090775e-001
    1.5527313999749314e-002 -3.3747788855041810e-001
    1.2263456380429100e-002 -4.5170193276974174e-001
    1.0830555475179219e-002 -5.5213160960619312e-001
    1.0134482034941036e-002 -6.3188647505087880e-001
    9.7265278391635620e-003 -6.9322439099774313e-001
    9.4810228062583851e-003 -7.3838490045824501e-001
    9.3269664859713421e-003 -7.7073076657941308e-001
    9.2118835958347536e-003 -8.2876952328269016e-001
    9.0652411048955366e-003 -9.1927271014272005e-001
    8.9715128503452118e-003 -1.0088060986882783e+000
    9.0050697105492471e-003 -1.0608282793932027e+000
    9.0414249902396691e-003 -1.0481237261139540e+000
    9.0015145645349817e-003 -9.6705521345440448e-001
    9.1734534916265917e-003 -8.4650228433733210e-001
    9.7550161788788840e-003 -7.0122275449120453e-001
    1.0932734670331646e-002 -5.5538565443651511e-001
    1.3062795677920784e-002 -4.2707460646741952e-001
    1.6875887836370441e-002 -3.1681047982258770e-001
    2.4101940546579017e-002 -2.2068580332366877e-001
    3.8751463222016364e-002 -1.4105726370130067e-001
    7.3159609120596256e-002 -7.8171042345357100e-002
    1.9892691542262070e-001 -2.9182578492498456e-002
    1.1745052636088484e+000 -8.0257859679937985e-003 1. 0.
    6.7743045194532669e-001 -1.0342104899698654e-002
    1.3034223502601749e-001 -4.3273622028637812e-002
    4.8396784585620529e-002 -1.0916701376363136e-001
    2.4554369196308077e-002 -2.0903257268663047e-001
    1.5957442297017288e-002 -3.3022464068133384e-001
    1.2265676368740121e-002 -4.5487526569794062e-001
    1.0581039790359304e-002 -5.6919680718391474e-001
    9.7712862742586806e-003 -6.7294360006505827e-001
    9.3716729213697333e-003 -7.6060122562919896e-001
    9.1670714229806546e-003 -8.2875749514337049e-001
    9.0565093371887725e-003 -8.8650818993286140e-001
    8.9927793155633890e-003 -9.5984040337562160e-001
    8.9601866312100115e-003 -1.0513839685493109e+000
    8.9706534258689029e-003 -1.1209048246414319e+000
    8.9915709913075108e-003 -1.1289434394918580e+000
    8.9897909461324008e-003 -1.0627393739357245e+000
    9.0489413975631070e-003 -9.3933290255853630e-001
    9.3869994595349414e-003 -7.8734756501774561e-001
    1.0238985882502244e-002 -6.2699095585584852e-001
    1.1917777300855883e-002 -4.8806277491330052e-001
    1.4791158246896483e-002 -3.6895114434919413e-001
    1.9759322047736599e-002 -2.6929222578181711e-001
    2.8636730168165581e-002 -1.8721262347438247e-001
    4.4816751016600868e-002 -1.2162743363810283e-001
    8.8757045142441426e-002 -6.6493819652545694e-002
    2.3309658019791660e-001 -2.6033003065103984e-002
    3.4296926369754859e+000 -5.7733159389087348e-003
    7.6547192357901865e+000 -4.0825169257547667e-003
    7.8814988570461819e-001 -1.0009503548448651e-002
    1.4248410269843431e-001 -4.0498731456984981e-002
    5.4363151333695764e-002 -9.9984707932933251e-002
    2.8375327488622572e-002 -1.8820172417891326e-001
    1.7729156407121936e-002 -2.9963131237262419e-001
    1.3022109541900492e-002 -4.2724846894466612e-001
    1.0766760710396927e-002 -5.5525136047379708e-001
    9.6810743355093577e-003 -6.8177739738408816e-001
    9.1870388757289943e-003 -8.0158751598510614e-001
    8.9979268816343348e-003 -9.0865684586542761e-001
    8.9719310664269480e-003 -1.0089452370233423e+000
    9.0022585562169813e-003 -1.1036228854408645e+000
    9.0612208366722975e-003 -1.1813322012848917e+000
    9.0423344294405638e-003 -1.1921856786161482e+000
    9.0119546128711852e-003 -1.1253050489984862e+000
    9.0406791698941658e-003 -9.9470795821094149e-001
    9.3022236841844245e-003 -8.3223274412924364e-001
    1.0018220458531771e-002 -6.6712599007954476e-001
    1.1463256311922469e-002 -5.2269449230298171e-001
    1.3974510147232210e-002 -3.9906542810446116e-001
    1.8207166230644323e-002 -2.9670064291410431e-001
    2.4981100867880378e-002 -2.1262622368528269e-001
    3.6186649309320182e-002 -1.4869395756610573e-001
    5.6897637528183539e-002 -9.6895728416537763e-002
    1.1475704424736648e-001 -5.0931088854385367e-002
    3.4232733864082288e-001 -2.0214429346740590e-002
    6.2807952703919492e+000 -4.0825169257547667e-003
    7.9016456627511626e+000 -4.0825169257547676e-003
    6.1066837998566887e+000 -6.0049057365257437e-003
    1.8016755677681681e-001 -3.3706347080329477e-002
    7.2587196736811327e-002 -7.8972450476426176e-002
    3.7455665821716146e-002 -1.4774137678937121e-001
    2.2428955822545487e-002 -2.4325024984597407e-001
    1.5405581048547274e-002 -3.6034629759351816e-001
    1.1969998229364799e-002 -4.8644317204398235e-001
    1.0208599615130163e-002 -6.2240998151146698e-001
    9.3414041031404278e-003 -7.5670417593653161e-001
    8.9670432839366356e-003 -8.8873651263300035e-001
    8.8608855988812490e-003 -1.0021705916762687e+000
    8.8928679606332679e-003 -1.0895925700834848e+000
    8.9179406011185743e-003 -1.1174380226865099e+000
    8.9114340937564915e-003 -1.0748398501629048e+000
    8.9850710736181592e-003 -9.6307263008735955e-001
    9.3227862196658406e-003 -8.1766817267627045e-001
    1.0074657913157727e-002 -6.6465591023765036e-001
    1.1549793802228309e-002 -5.2359507978864084e-001
    1.3996888188408021e-002 -4.0214202844498298e-001
    1.7929426219009413e-002 -3.0306915962171466e-001
    2.4197135218011402e-002 -2.2168084444305056e-001
    3.3843079925784600e-002 -1.5936593526785550e-001
    4.9465112384615262e-002 -1.1006069947430872e-001
    8.3866566172356299e-002 -7.0039764962740489e-002
    1.9636356479161621e-001 -3.7135622828174480e-002
    6.8419120753163565e-001 -1.2201409867647502e-002
    3.4020974381289726e+000 -4.0825169257547667e-003 1. 0. 1. 0.
    3.5436976592843078e-001 -2.2738726647074308e-002
    1.2394825414122598e-001 -5.1905397225874068e-002
    5.7706483627069961e-002 -9.9988024180624122e-002
    3.3587353790810542e-002 -1.6843162263323730e-001
    2.1636815134268017e-002 -2.6031071981245063e-001
    1.5448413568205534e-002 -3.6983708061131620e-001
    1.2174356454018282e-002 -4.9009799512089147e-001
    1.0449052992553004e-002 -6.1537067921304456e-001
    9.5637224340296180e-003 -7.3897799359204341e-001
    9.1617488731368553e-003 -8.4317590464230574e-001
    9.0462563769141725e-003 -9.0195141353546182e-001
    9.0738577911196883e-003 -8.9980608323712019e-001
    9.2695563858204554e-003 -8.3974857905988531e-001
    9.7197871775051570e-003 -7.3465553413096107e-001
    1.0637555873087607e-002 -6.1257571084840612e-001
    1.2242464956319374e-002 -4.9207118796130972e-001
    1.4900760471377032e-002 -3.7992816658281020e-001
    1.8951479783046236e-002 -2.8881739331366080e-001
    2.5040927583794417e-002 -2.1344093709719539e-001
    3.4772498014742532e-002 -1.5366778231001738e-001
    4.9488756807815740e-002 -1.0912600801168756e-001
    7.5483885452548014e-002 -7.4098756154493753e-002
    1.3956777504971854e-001 -4.3317185116264312e-002
    3.3370543946177528e-001 -1.9343791974134241e-002
    1.0817138996367865e+000 -1.0402482001507098e-002 1. 0. 1. 0. 1. 0.
    6.5316724493651523e-001 -1.0352700832243766e-002
    2.3527088699057305e-001 -2.8750102390248028e-002
    1.0589559191438495e-001 -5.7568373617723469e-002
    5.9537456219121085e-002 -9.5310536788380001e-002
    3.6544894002382616e-002 -1.5360976204178156e-001
    2.4435116732738491e-002 -2.2342452610552213e-001
    1.8040449598609017e-002 -3.0357777033971306e-001
    1.4347328131871021e-002 -3.8847997348318075e-001
    1.2340002153670652e-002 -4.7019583239547175e-001
    1.1332497678375531e-002 -5.3312356540700145e-001
    1.0976936830697366e-002 -5.6650598866125268e-001
    1.1043147742482542e-002 -5.6278365603933089e-001
    1.1601952764605759e-002 -5.2716469557117129e-001
    1.2738150523733418e-002 -4.6805739652434009e-001
    1.4423444732045322e-002 -3.9580504525709581e-001
    1.6997044748378556e-002 -3.2478944599478732e-001
    2.1107963135629754e-002 -2.5570503161948921e-001
    2.6973584154826809e-002 -1.9461171231865995e-001
    3.6514784921153232e-002 -1.4457420509781937e-001
    5.1060803624541448e-002 -1.0177354277104227e-001
    7.5086963606358748e-002 -7.1425222681155323e-002
    1.1955398329308130e-001 -4.7777756856691722e-002
    2.5292947381802755e-001 -2.5752435925905506e-002
    5.1297176906466124e-001 -1.1379423743751069e-002
    2.4583835782087951e+000 -4.7528749178703368e-003 1. 0. 1. 0. 1. 0.
    4.2538092194313197e+000 -6.6643011104424010e-003
    6.1654432262170566e-001 -1.0964213203956000e-002
    2.1602544608191854e-001 -2.7604451585167823e-002
    1.0864826383686564e-001 -5.1553601190592747e-002
    6.1737350291149698e-002 -8.6771845834210895e-002
    4.0364909928613746e-002 -1.2839203275243580e-001
    2.8612152561722906e-002 -1.7577589804768851e-001
    2.2694195330940446e-002 -2.2305443764921434e-001
    1.9225169603306887e-002 -2.6664028561813097e-001
    1.7635987363975612e-002 -2.9484431541339895e-001
    1.6989234794794677e-002 -3.0750543293969690e-001
    1.7168678155634391e-002 -3.0518012168766356e-001
    1.8296930547594088e-002 -2.8923177911951814e-001
    2.0057933343472379e-002 -2.6323129112972693e-001
    2.2263524117221829e-002 -2.3372358935880061e-001
    2.5802018189541493e-002 -2.0102782405108269e-001
    3.1346829126865844e-002 -1.6369105191188499e-001
    4.0373375387709659e-002 -1.2766599609265630e-001
    5.5556842332466098e-002 -9.3965139331644326e-002
    7.9579095443036790e-002 -6.5683259060425186e-002
    1.2393037386965705e-001 -4.5926531049863738e-002
    2.0540333524789875e-001 -2.8718809656577044e-002
    5.0190948322325490e-001 -1.5693036508780435e-002
    1.5912073332956527e+000 -5.6753061554211609e-003
    2.3552982263969806e+000 -4.0825169257547658e-003 1. 0. 1. 0. 1. 0.
    1. 0. 6.4460793564548942e+000 -4.0825169257547658e-003
    4.2655553896960768e-001 -1.5121393856472593e-002
    1.9235291492922035e-001 -3.1369554543040350e-002
    9.9074653779864116e-002 -5.3330234885471187e-002
    6.6059337903862758e-002 -7.9228266914997791e-002
    4.6793070342535159e-002 -1.0837665033583997e-001
    3.8155093701435369e-002 -1.3397906785967686e-001
    3.2475493672729311e-002 -1.5751318066969958e-001
    2.9280715938901667e-002 -1.7510551348168438e-001
    2.8337019777137335e-002 -1.8262689734335766e-001
    2.8843043729560394e-002 -1.8053534074685540e-001
    3.0495643608517826e-002 -1.6987649098197535e-001
    3.4411445280974971e-002 -1.5315731360838736e-001
    3.8312780160134272e-002 -1.3543312368073065e-001
    4.4941565784027020e-002 -1.1648029922513764e-001
    5.5227542355114533e-002 -9.3951254136442341e-002
    7.1958047886264295e-002 -7.2576887098086171e-002
    9.6920183237295565e-002 -5.2364359666723509e-002
    1.5261325299611461e-001 -3.6382999514273727e-002
    2.8569172361868639e-001 -2.1503063731033129e-002
    8.0531623469345792e-001 -1.3019279127544236e-002
    8.6984809647906935e+000 -4.4942151651418587e-003
    4.1517121278862037e+000 -4.0825169257547667e-003 1. 0. 1. 0. 1. 0.
    1. 0. 1. 0. 1. 0. 2.2855909048659870e+000 -5.7901636256605001e-003
    5.8099546031975102e-001 -9.0538459233161193e-003
    3.8443818204485203e-001 -1.6005442979134008e-002
    2.4797937345246546e-001 -2.2119760111959919e-002
    2.0937992323957350e-001 -2.6845995824700649e-002
    1.6186917948672025e-001 -3.1845063244354099e-002
    1.3019713925899318e-001 -4.3748408743342695e-002
    1.0996886744491646e-001 -4.7282947372399249e-002
    1.0102754437895323e-001 -5.3138804550923083e-002
    9.5859856188538567e-002 -5.6622819386299920e-002
    8.7696849394196696e-002 -6.0338355611520469e-002
    9.5082200380204471e-002 -5.6295001438439726e-002
    1.0640768770340518e-001 -5.1366537777357127e-002
    1.2410541878473520e-001 -4.2632279776202958e-002
    1.6549655953012565e-001 -3.3171027081821514e-002
    2.5277062613373452e-001 -2.2462882975751206e-002
    3.5213484965517022e-001 -1.6069086972597599e-002
    5.9285407782360333e-001 -1.1432202800698484e-002
    5.9585189636506186e-001 -9.0072945000518514e-003
    2.8851969640687107e+000 -5.7703939281374215e-003 1. 0. 1. 0. 1. 0.
    1. 0.</input_scale>
  <output_scale>
    5.2631578947368418e-001 4.9999999999999994e-001
    5.2631578947368418e-001 4.9999999999999994e-001
    5.2631578947368418e-001 4.9999999999999994e-001
    5.2631578947368418e-001 4.9999999999999994e-001
    5.2631578947368418e-001 4.9999999999999994e-001
    5.2631578947368418e-001 4.9999999999999994e-001
    5.2631578947368418e-001 4.9999999999999994e-001
    5.2631578947368418e-001 4.9999999999999994e-001
    5.2631578947368418e-001 4.9999999999999994e-001
    5.2631578947368418e-001 4.9999999999999994e-001</output_scale>
  <inv_output_scale>
    1.8999999999999999e+000 -9.4999999999999996e-001
    1.8999999999999999e+000 -9.4999999999999996e-001
    1.8999999999999999e+000 -9.4999999999999996e-001
    1.8999999999999999e+000 -9.4999999999999996e-001
    1.8999999999999999e+000 -9.4999999999999996e-001
    1.8999999999999999e+000 -9.4999999999999996e-001
    1.8999999999999999e+000 -9.4999999999999996e-001
    1.8999999999999999e+000 -9.4999999999999996e-001
    1.8999999999999999e+000 -9.4999999999999996e-001
    1.8999999999999999e+000 -9.4999999999999996e-001</inv_output_scale>
  <weights>
    <_>
      -2.3939812486818974e-003 8.4936007508614429e-004
      9.6585435686827163e-004 -2.4647605855414741e-003
      1.3195145769160962e-003 2.4623047461713294e-003
      -1.1527886789964208e-003 -7.1983589707890036e-004
      -2.8637706880977134e-004 8.0550090219362526e-004
      -3.6580978255983988e-004 1.2967108669864477e-003
      -5.7424664986832413e-004 -5.0203014148849810e-004
      2.6014635959103936e-005 2.5323896949311507e-003
      6.2307852738059389e-005 2.2280472884078071e-003
      7.9601099751042820e-004 6.2944232666872497e-004
      -2.5231864210873968e-004 -9.4077382366237238e-005
      -1.4544693841673263e-003 1.6417912781309773e-003
      1.5323983352070200e-003 2.0096787154666946e-003
      -1.6019864768175949e-003 8.1058572754296810e-004
      8.0383562382529679e-004 3.8808973026766930e-004
      2.0440570886294117e-003 -1.2310171640883684e-003
      1.2343677264945523e-003 -6.1804884966640760e-004
      -1.4549882515290206e-003 1.4253269117816942e-004
      1.7821241496321864e-003 -1.8287070494086590e-004
      -1.9155151864738570e-003 -2.3689156675591344e-003
      -5.8447003378880717e-004 -6.9126715158206046e-004
      -1.1010024937640765e-003 1.6544476810894349e-003
      2.3939269109873895e-004 8.3786623865808412e-004
      -1.2157347476263816e-003 -1.1605313618661573e-003
      -5.4002608346846986e-004 -1.5110490149991913e-003
      1.1226542382043218e-003 1.6301187256544994e-003
      -1.4056682480954215e-004 1.8209584506137821e-003
      -1.3934339914668159e-003 1.8503065212182846e-003
      2.0887321920228831e-003 1.8181196042644458e-003
      1.0399443872830029e-003 7.0791691159464304e-004
      2.2279110503575571e-003 2.5402012975600532e-003
      2.1853465457793869e-003 -2.4135038841213764e-003
      2.0650200838872282e-003 -1.1405015523387968e-003
      -1.9950081115206460e-003 -1.9740227074472026e-003
      1.4074703738230349e-003 1.1775424616181618e-003
      5.6214688258838792e-004 -4.8225006653366870e-004
      -2.4973307373513643e-003 -7.7279824785335654e-005
      -9.7221523368987844e-004 -2.4126025514868538e-003
      -2.1624634503636395e-003 1.7533038294780122e-003
      -6.0564496502744523e-004 -1.8731394917088316e-003
      -8.7513551954296819e-004 -2.4786675802071631e-004
      1.0692600223330408e-003 2.3354738243794777e-003
      -1.5305256261955962e-004 -4.7272180896286534e-004
      -1.9049765030416905e-004 -1.1648268117088593e-003
      1.5168403526353089e-004 4.7455322115614592e-004
      -1.1564026870763044e-003 1.3289419955234798e-003
      -1.1119094626632953e-004 3.3182091883472595e-004
      -5.3885584467294010e-006 2.0682456716878020e-003
      -1.8037833860842826e-003 2.6914677818572463e-004
      2.2078161816006798e-003 -2.1658414545546516e-004
      8.2478670392002284e-004 5.0502262576391543e-005
      -1.1059541552507028e-003 -1.1462790539958705e-003
      1.6838522820160709e-003 1.4928813937643301e-003
      2.4066501492943457e-003 -1.3805676833976005e-003
      -1.1432004356527448e-003 1.5739247952894478e-004
      -1.6247225073566878e-003 8.9267071628749799e-004
      -1.0373489512656912e-003 -1.7848490019788750e-003
      -1.9040176865058104e-003 2.4749948006021058e-003
      2.3265695096527476e-003 -1.5717976614908176e-003
      3.0976285780915015e-004 1.9474800223644646e-003
      1.5687188046610799e-003 1.9710678023607616e-003
      -2.6271519525812390e-003 7.0628970800172878e-004
      -2.2613805103023424e-003 -2.2492453046296331e-003
      -7.7591035675663193e-004 -1.4141484873715245e-003
      1.0217720036861386e-003 -6.5866018284825719e-004
      6.8713841541900500e-005 2.1593736101307428e-003
      2.0481151737595854e-003 -1.1709347690116419e-003
      -1.4722701741640997e-003 1.9868746373063778e-003
      2.4390822840323696e-003 1.8692083079090176e-004
      2.4672771504237545e-003 1.7415167197079758e-004
      1.4483754583832829e-003 2.5405964013250951e-003
      -1.6921045664069635e-003 -6.2271075580655510e-004
      -2.0004117184311936e-004 -5.0483862349790150e-004
      4.9627053721566176e-004 -1.2012114137535145e-003
      1.8437905716016994e-003 -1.9802720597232623e-003
      2.4384749453281447e-003 -1.7161463333902867e-003
      2.6059160613438365e-003 -8.8687862866976979e-004
      -5.6483769748883416e-004 -2.3118418358634013e-003
      -6.8629192464709620e-004 7.8209277214531076e-004
      2.6912930647970533e-004 -1.4936435078858603e-003
      -1.6497104491172473e-003 1.6033722408983180e-003
      -4.0906000403777390e-004 2.4268791288125573e-003
      9.1706583663770248e-004 -6.9467677212588968e-004
      -2.4575237808038566e-003 4.1172502187026601e-004
      2.3070848296515216e-003 -1.5653347059928792e-003
      -1.0137041277779616e-003 -2.0380837878462743e-003
      -1.4065441426356878e-003 -2.0758828405476591e-003
      -1.0928340148085934e-003 -2.5220418779602453e-003
      2.2929812642097360e-003 -7.1842749559237649e-004
      2.1191566020158873e-003 -5.7847391002054311e-004
      4.3751175821924397e-004 1.1676377239260146e-003
      2.2238680966890933e-003 4.5620419151829947e-004
      1.5004634113546052e-003 -7.7760377606646844e-004
      1.5636579908030041e-003 3.8609082710068190e-004
      8.5233739630226162e-004 -7.0119542111019429e-004
      -1.6199184262887893e-003 -5.8480904716358649e-005
      1.0138603792754091e-003 2.8445463331344223e-004
      1.6606052759093077e-003 -8.0647646975605858e-004
      2.4371134014854906e-003 -4.2849950700782265e-004
      1.8714954614844764e-003 -1.8632010724561898e-003
      -1.0567602162346597e-004 1.2551393682127012e-003
      -2.2817486999970314e-003 -2.2419071014834410e-003
      -1.1187526676072260e-003 -2.5520523132974964e-003
      2.3227008827893946e-003 1.9030113161185578e-003
      9.3462450655330636e-004 1.8707375372027542e-003
      8.3291080788223015e-004 -1.1716399949876311e-003
      -6.0965748048628368e-004 -9.3142742142041286e-004
      4.0252565718665838e-004 -2.3746247684589671e-003
      -1.5256181103365043e-003 -1.6676436443583448e-003
      -1.0706807510358219e-003 -7.0666726487262797e-004
      6.7292204617520619e-004 5.1926577815007734e-004
      -2.4218835951772058e-003 1.3220913426832215e-003
      3.3278640120905389e-004 3.4508606223211072e-004
      -9.7118128856154835e-004 -9.1385147754222032e-004
      -6.1458832289818042e-004 1.1081756020900617e-003
      5.1332127146600361e-004 1.2609175642013910e-003
      4.0341068207453166e-004 -1.7131622799629223e-003
      8.7200075611434220e-004 5.2160249737905767e-004
      2.2025972949184596e-003 -4.9134670250646135e-004
      -4.5421238567223720e-005 -1.5099114759294845e-003
      -4.8084835749351773e-004 1.4434242152904270e-003
      -1.2200305731428268e-003 -2.3896661974146861e-003
      -1.6550354548547934e-003 -2.1787250743650999e-003
      -2.0414600774858746e-003 1.9892561339461936e-004
      1.1996981765393039e-003 -1.1387002588296472e-004
      -1.6394002072646365e-003 -1.8751125576793315e-003
      -2.0289244696807809e-004 -7.1628325727340187e-004
      7.5719594219004138e-004 -1.0149540796044025e-004
      -1.6306108338733475e-003 6.0384537602037260e-004
      -2.0859038900317927e-003 -1.1741327220688813e-003
      -1.0414302105927259e-003 1.5998470164571171e-003
      2.3469360247765528e-003 -1.0331234453419577e-003
      1.7366463215930093e-003 1.4061015239691657e-003
      1.0299350353668900e-003 1.4829518440384142e-003
      -1.6126417954985352e-004 2.8712782139407817e-004
      7.6303124575824845e-004 1.7658412559758061e-003
      1.8407784697574453e-003 -1.5554975032811326e-003
      -1.8229522783723188e-003 -9.7535023173840802e-004
      2.4544560689926448e-003 9.9581085740027726e-004
      -1.9434427546321869e-003 -1.6970480958243704e-003
      2.1071906740250533e-003 -1.3082774571176130e-004
      -1.8581454788165160e-003 -9.3726558408674865e-004
      3.8278193959775855e-005 -9.3052359811559280e-004
      9.6638621033791697e-004 1.7434762317094894e-003
      -1.5159455755827005e-003 1.8395960584088407e-003
      2.2686553459150128e-003 4.0176418909614660e-004
      1.0091672470999278e-003 1.2923548729329372e-003
      1.2973638145579482e-003 1.3708427684689709e-003
      -1.9407885951191139e-003 -1.4949793236025604e-004
      -1.7113419217398094e-003 9.6601591206166228e-004
      6.3341808361687391e-004 1.8297159920521631e-003
      -4.1881400766986598e-004 9.8855530364856843e-004
      -3.5970178809834497e-004 -1.4782941196455230e-004
      -1.5620517306036625e-003 -8.2205061291142003e-004
      1.6939581987880559e-003 1.7989346164163978e-003
      2.4790674575165595e-003 -1.8166157480815218e-003
      5.1775310260625945e-004 -1.8730415882430944e-003
      1.0942704021323544e-003 1.5218307587529362e-003
      -7.2929734252552851e-004 1.4180446946674375e-003
      2.0198224780031940e-003 7.2237495908250213e-004
      -1.8390716485538420e-003 8.6712012081508936e-004
      -2.7551685190469079e-004 1.6671334046737751e-003
      -5.5388202799376302e-004 -2.2211925831212495e-003
      -3.1314458940538285e-004 2.5232628306238016e-003
      -2.2118372330591114e-003 1.6505772170607434e-003
      -2.2857754524738317e-003 -1.4023582711326092e-003
      2.6226922776886479e-003 -6.1704232991250632e-004
      1.3746661711368361e-003 2.1894539610025606e-003
      -1.9326696657178419e-003 3.2353124859687871e-004
      1.9819782756559808e-003 -5.6531602920385348e-004
      -2.4508495177563670e-003 -7.4041254219187535e-004
      -2.1508997667453850e-003 1.6055594624601593e-003
      6.1225942643527715e-004 -9.9439284129076294e-004
      -1.6938194920316728e-003 -1.4455106048872511e-003
      2.6555567584147068e-004 2.3330544733863056e-003
      -2.3312022237901068e-003 -4.8007365502885155e-004
      8.7149330048669779e-005 -1.7047090488146034e-003
      1.0342501782854713e-003 -5.2367953655847700e-004
      -1.7027761957468486e-004 -1.9511628051929310e-003
      -1.5855541841814469e-003 -4.2818187093851670e-004
      7.3596307654834381e-001 -1.8530724151228604e-002
      -1.7924816967616521e-002 -6.8278401925386978e-002
      -2.2193397144795551e-001 -6.2818229791600094e-002
      1.6794667249379788e-001 -5.2040263219151346e-002
      2.5269927308578046e-002 2.6933729918229388e-001
      1.2497374446203466e-001 -4.4480833816455956e-002
      -2.1865445252225915e-001 9.9235119813863959e-002
      -3.8738738554447377e-001 -5.2517522722977272e-002
      -9.1798309619345250e-002 -9.2037109443314391e-002
      2.4281873259488018e-001 -2.0342978367315526e-001
      1.1540890618059767e-001 1.7235868124159001e-001
      -5.9440637690590874e-002 -1.4299462798443999e-001
      1.6937919000888771e-001 -2.1674545828569799e-001
      -1.3928828865298179e-003 1.1538187915568296e-001
      3.5174271199467026e-002 1.4662639757348539e-001
      7.1891616515988244e-001 -1.1235387090577922e-003
      6.5517308102035132e-003 -3.3719810471274390e-002
      -1.6649924207361444e-001 -1.0274313251092914e-002
      1.2677264071801286e-001 -4.3849587241523415e-002
      2.0324110928799505e-002 2.0446464489572425e-001
      9.3367291165799018e-002 -2.6445030123084984e-002
      -1.6386337803541082e-001 7.0885858342076585e-002
      -2.8982236301884517e-001 -5.2400647432818637e-002
      -4.4456679202527834e-002 -7.0817523025143519e-002
      1.8048880223386643e-001 -1.4943234460083712e-001
      8.2576205954645321e-002 1.2810506907818786e-001
      -2.5825549972551959e-002 -1.0644520954699277e-001
      1.2657840114676933e-001 -1.6125724402177252e-001
      1.1889954076341674e-002 8.4390587126963151e-002
      2.3147894023197901e-002 1.0721829793848922e-001
      2.6822906767693100e-001 1.8086110073616320e-002
      2.9187706569676217e-002 3.3198740091685282e-002
      9.4967095633644392e-003 6.7881805072805682e-002
      -5.3491630423950108e-003 1.2461377436659019e-003
      1.5291209151614749e-003 -6.9806305153634852e-003
      -4.7963720075122219e-003 1.3740516735663236e-002
      6.4404741951679901e-003 -1.1169253680924817e-002
      1.1704462843740283e-002 -2.4572902271180867e-002
      5.0199726405909965e-002 -1.3137126535602429e-004
      -1.0924400661204222e-002 8.1086471270108446e-003
      -6.8272241461556950e-003 -4.9694913372301686e-003
      3.5314307978829625e-002 1.0446052490322945e-002
      -5.5410733653768612e-003 8.8412667957714908e-003
      2.0343025774564139e-002 -4.5858438167917384e-003
      -7.9487343247154011e-003 -4.6633940521147435e-003
      2.7036244513311525e-001 1.5940155842083793e-002
      2.8574246601824945e-002 3.3930438908851897e-002
      7.8801186274045937e-003 6.8911542239042264e-002
      -5.5572558687701093e-003 -2.5895559231754153e-003
      -2.7024445288868020e-003 -2.8802023152671402e-003
      -2.3279184681948843e-003 1.5991673470556342e-002
      3.7495420270924262e-003 -9.9042252619485245e-003
      1.2622066792786170e-002 -2.5529111819229847e-002
      5.1149853444400192e-002 1.0127439475510881e-003
      -1.0993562369581556e-002 5.1075053947781763e-003
      -3.6252142785833811e-003 -2.5327394659077169e-003
      3.8147608514778074e-002 7.6826137933096224e-003
      -5.8734684173729120e-003 1.0449658070473881e-002
      1.9013783519456973e-002 -4.7920833021088119e-003
      -6.4939840782600369e-003 -6.5215447496833273e-003
      -2.4124252313146427e-004 2.4877363615886292e-003
      -7.5216360247844097e-004 -2.1526782116795657e-003
      9.2808946054698531e-004 -1.6185969314668064e-003
      -5.9121378937925081e-004 4.5369101491116772e-005
      -7.4719041593419356e-004 -1.0338683330915921e-003
      -4.8032411376723626e-004 1.5732209413582921e-003
      2.6521706382663359e-004 2.3304900799673129e-003
      -1.5017649121349748e-003 -2.0692888652865758e-003
      -2.2824263887496607e-003 -3.5377832149031393e-004
      -1.8801698908161048e-003 1.1525902316391174e-003
      1.2236692620700034e-003 1.4338266425475117e-003
      -4.7049475523885958e-004 2.2277600447990157e-003
      9.8198123444294318e-004 -1.3237209388156012e-003
      -2.2010831651668680e-003 3.2240554506732087e-004
      2.5320372421166348e-004 -2.0759781027591150e-003
      -9.6725959234682224e-004 2.1820100636970063e-003
      -1.5767754148170892e-004 2.4189522674551937e-003
      -1.0783281659980460e-003 1.0209789235078241e-003
      -2.3001097548634936e-003 -2.1274692464248899e-003
      8.9456161304354962e-004 -2.1687639280258534e-003
      2.8031947328921073e-004 2.3710371034066308e-003
      -6.0810698622981295e-004 -1.2618933260747367e-003
      3.7092201642891236e-004 1.0098088550546194e-003
      1.0641012153043518e-003 8.5668355020620754e-004
      -4.4179196621434342e-004 -4.6826745606362927e-004
      -6.0221712749483364e-004 1.0062184211210908e-003
      -6.3062127314485791e-004 1.3092593099032137e-003
      -7.3267354139735521e-004 -1.5807114967742214e-003
      7.1622589579707022e-004 1.9328152537041016e-003
      -6.8946443763092671e-004 6.9908631664643490e-004
      4.8140961262840365e-004 -1.0669161519742012e-003
      -1.1304707922473788e-003 -2.4196166855114916e-003
      -2.2477043500051630e-003 -1.3810526798334985e-003
      1.9670422828384584e-003 9.0944536716638859e-004
      1.4339022343146126e-003 1.6593068348584849e-004
      1.0249338087584315e-003 1.9945605005092936e-003
      -1.7933371503843407e-003 -1.0891101230487820e-003
      -1.1525161051330662e-003 1.4890600608248670e-004
      -1.9920193153009982e-003 -1.8286602502687796e-003
      6.1498326368081106e-004 1.8596118524843192e-003
      -1.9928464554679827e-003 -4.4439826108446057e-004
      -1.8651353083414986e-003 2.1962603457916200e-003
      -1.6564548839075304e-003 7.8408132723169698e-004
      1.5518718897698459e-003 8.1211366749008138e-004
      -6.1588422275436414e-004 2.3042947707485836e-004
      -2.4233640717585933e-003 -2.2553427602556757e-003
      1.9667224899576207e-003 1.3352376707672345e-003
      -2.1703256481772965e-004 4.1910831468335198e-004
      -9.4076448987193042e-004 4.5167164800782595e-004
      9.2020997337662286e-004 -1.9969738270121714e-003
      8.6464086435897335e-004 -9.8434944867371236e-004
      -5.4708412439943857e-005 4.8881129576822569e-004
      -2.2084257697222967e-003 -2.2406433690984342e-003
      -2.2320255959188120e-003 2.0798935782063272e-003
      2.1832815646224044e-003 -1.8097874120363928e-003
      -1.9855392984434546e-003 -1.7589893912706989e-003
      -1.2424950828900743e-003 2.2281832393642267e-003
      -3.9066587189629773e-004 -3.3292327314871651e-005
      1.9011792303392781e-003 -3.7475145106394264e-004
      -7.2637791363924916e-004 -9.1437238397838109e-004
      2.0997905027406736e-003 1.3098905691871158e-003
      -5.1524074190390466e-004 1.2901975324807748e-003
      -1.4448185853182727e-004 1.7211672708544292e-003
      1.6810559842796459e-003 1.5003125468079940e-003
      -8.6657682583298899e-004 -2.4774554591240213e-003
      -1.1368213253304660e-003 -1.6460584301126631e-003
      -2.6096196010606988e-004 -1.3442444983128221e-003
      -1.4103614653953296e-003 -4.0949982398802730e-004
      -2.3620621880544588e-004 1.0703788538920325e-003
      -7.0314861255109840e-004 2.9273807869133016e-004
      1.6662060899171793e-003 -1.5746012891282649e-003
      1.5733597118136014e-003 -2.4799761022149358e-003
      -2.4048774382144544e-003 2.0752239812732265e-003
      -1.0905205432026482e-003 -6.8491826054448797e-004
      -2.3773422239698204e-004 1.7429489738814185e-003
      -2.8084595323478624e-004 -1.1196277767102530e-003
      4.7256399079016975e-004 -3.5270604333533629e-004
      3.6098617618197704e-004 2.3552301417568500e-004
      -2.0932816837879427e-003 -4.7632994338508945e-004
      7.5373850515536806e-004 2.0986502424221766e-003
      2.3968570590791566e-003 8.9990812015209253e-004
      1.4601039201062661e-003 1.4161532285716545e-003
      1.7817663327264011e-003 -1.3745721276578734e-004
      -2.1741320650895211e-003 -2.3433984232766897e-003
      -1.5472315840337897e-003 1.9428742631522030e-003
      1.9807445406589508e-003 1.9524384827402429e-003
      1.0703754465043358e-003 -8.5881555420153522e-004
      1.5723300624311087e-003 -1.8246151629652367e-003
      -1.4849742339988359e-003 2.5045955467345980e-004
      1.0282031196306334e-003 -4.2007134182567058e-004
      2.3337101643542864e-003 -2.0155912258874812e-003
      1.4465379875761319e-003 -1.1993295474694605e-003
      -1.5719393422835497e-003 -1.7453130077950514e-003
      -1.8709224091771014e-003 -8.1979465568722488e-004
      -3.8075239438359120e-004 1.3843740509362813e-003
      -2.6816804773284280e-004 4.7851084726987825e-004
      1.9719515501807755e-003 -6.3262007666292305e-004
      -1.2008382466389563e-003 2.5374935846884678e-003
      1.1840527604792359e-003 -1.8655726642683727e-003
      -1.9712608014803212e-003 -1.2964817318810698e-003
      -3.0252186610138347e-004 -1.6461807002414764e-004
      9.3465457828560130e-004 2.3271262023737724e-003
      1.3580823182305858e-003 1.6650332071801506e-003
      1.0815225105533059e-003 2.3204501936978979e-003
      1.0272486554042100e-003 -1.6775013660033416e-003
      1.4285898876184599e-003 -1.2709826314687334e-003
      3.6321847212802901e-004 -2.3140586835762923e-003
      -2.6534489129011760e-004 -1.5529102123525203e-003
      1.7166331936422502e-003 -1.3170981053539307e-003
      2.1940717347313115e-003 4.6685278128556535e-004
      -2.1605649523331327e-003 -2.2917516727349227e-003
      2.3114525832516651e-003 -1.6470445637892532e-003
      -1.0470739544451333e-003 1.3911878526150082e-003
      1.1604056352966200e-003 1.4961897772989765e-003
      -1.6384823104582313e-003 -5.6264312700506623e-004
      2.0781834246144408e-003 -1.9325014640947497e-003
      9.4443558755955915e-004 4.6577176832206284e-004
      1.5887718473828289e-003 4.2679037240702197e-004
      1.9340292665752322e-003 1.4160893899913965e-003
      -1.3442190062783865e-003 -4.4632679994049874e-005
      2.3031807370537784e-003 3.5074805103087669e-004
      -2.5853343016866985e-003 -7.5870122185927214e-004
      1.2533320898406261e-003 -1.1849988029198520e-003
      -2.4603971727717053e-004 6.8880553355771311e-004
      -2.5120188816595149e-003 1.8638589774399507e-003
      -9.6377437951289507e-005 1.8351852927335176e-003
      -2.4657383898410478e-003 -2.4550951893048570e-003
      -1.0252897745912865e-003 1.8538810721776367e-004
      -2.1219184203164340e-003 1.4133682431650191e-003
      -1.1751110179351336e-003 1.8702429134285566e-003
      2.2363341244610153e-003 -2.3887186509593604e-003
      2.1003575833019651e-003 1.2843983557426471e-003
      -1.8491771998407533e-003 3.2447886777752611e-004
      -1.2723060977040369e-003 3.5452473366592927e-004
      1.2256099753238665e-003 -1.3660993271384144e-003
      8.1248178939244279e-004 -1.9096125258959566e-004
      1.3302138458366371e-003 -6.8241383874137593e-004
      2.3075912342952168e-003 -4.5316190257319315e-004
      9.4137949129264697e-004 -2.4669016598473392e-003
      -6.4152199328428462e-004 -2.3735563089868628e-003
      2.2880927205109311e-003 1.6226002810070062e-003
      1.0521486399044111e-003 -1.8258708696867094e-003
      1.5539244401802377e-003 2.2415003781321272e-003
      -1.6567908424680838e-003 -9.3604419186806259e-004
      2.3513183526574764e-003 2.0557754003202532e-003
      -5.2880596104082692e-004 1.1547950265377461e-003
      -3.7796475687285747e-005 5.4072030394702181e-004
      -2.4612538770384484e-003 -1.0559274273824785e-003
      -2.4956214977385938e-003 -8.0847636460003953e-004
      -2.0821506181922167e-003 2.4372214836121801e-003
      2.1684022094808682e-003 -5.5921848176013092e-004
      -9.7132328412939250e-004 8.8331188042450743e-005
      -1.0797271486565299e-004 1.7105785457112532e-003
      -8.5308539354247839e-006 2.4681818588958141e-003
      9.1720713563351144e-004 2.3810634912121600e-003
      -2.0592462029126561e-003 -2.4687567449250773e-003
      -1.9307363550376733e-003 1.1452909513821055e-003
      2.5155026073556243e-003 -1.5644804827838837e-003
      -6.8103722757295268e-004 -1.1805522701206449e-003
      3.8208721445863892e-004 2.3134881231563287e-003
      4.4918024425192606e-004 8.8611370321854514e-004
      -4.8135418567556313e-005 2.5060778738379519e-003
      -7.4863780603943184e-005 1.5502923589251327e-003
      -3.8604763371010250e-004 2.0186676142415218e-003
      7.4932282845205389e-004 1.2673781410604628e-003
      1.7814269722886261e-003 5.6101717667126705e-004
      1.7497431170782165e-003 -9.5172002757438925e-004
      -9.5138318435326159e-004 -1.7580516361674291e-003
      2.4994710697193766e-003 5.8703661321766250e-004
      -2.0529154493978716e-003 -3.9027657999073968e-004
      2.1341174424445966e-003 -2.2935647247968767e-003
      4.9173864645263104e-004 1.8764941990646227e-004
      1.0849707004675314e-003 9.1577627660176198e-004
      -4.5915693777569456e-004 -1.3946612189815087e-003
      1.2315796039666248e-003 1.3579050987068708e-003
      1.7966423690281429e-003 9.8961874366642190e-004
      -1.6822288418988007e-003 -4.3667165413190090e-004
      2.2590119444999405e-003 -2.1720649009150834e-004
      5.6994863262767412e-004 -5.3730725934955832e-004
      -6.0410482581240148e-004 -2.1843408112401500e-003
      1.4161773015338383e-003 1.2172705132618030e-003
      8.7053683140799290e-004 2.5237971433592610e-003
      -1.1059726113916988e-003 1.3365806929208697e-003
      -1.3398185780025963e-003 -1.0789205316813443e-003
      5.8092710845443745e-004 6.2927529513268922e-004
      -4.3439112642471039e-004 -2.1728783675086191e-003
      -1.2669587709777698e-003 2.4553344272440977e-003
      -2.1966951383605975e-003 -3.7418397312745681e-004
      -1.5347389709006590e-003 1.4032292219003319e-003
      -3.7520089929461020e-004 1.1628425161676558e-004
      1.0745252975251994e-003 -7.0916935339411090e-004
      -2.3168774392001634e-003 1.2102984217313654e-003
      2.4086141982333190e-003 1.6425897918625270e-003
      -1.6982148652006286e-003 -1.4946328833879998e-003
      2.3818182247157568e-003 -1.1383721705888494e-003
      2.2209066428279947e-003 -9.1923417761622577e-004
      4.1668225676677514e-004 2.1220101771658758e-003
      -2.0411870282356576e-003 1.4194077631153454e-003
      -4.9668027406114920e-004 -7.2819290416302918e-004
      -1.9737715586577924e-003 1.1593684562183687e-003
      2.2233036455494700e-003 3.4340799571512233e-004
      -2.2467681604229572e-003 -2.0597512842717926e-003
      -1.7555889473734876e-003 2.4275365824525720e-003
      1.5440758713389767e-004 -1.0573853478818944e-003
      1.2405896621307448e-003 -4.5091667747922007e-004
      3.0011664036914227e-004 1.6737629597912390e-003
      -3.9602904539854582e-004 2.2742875363148483e-003
      -1.5185528428475841e-003 -1.1727744329053183e-003
      -8.9312077316780600e-004 2.5242186846568702e-003
      -1.1600935257920098e-003 -8.5593977623663064e-004
      1.5488577536193211e-003 1.9593541453795504e-003
      -8.2127941418157929e-004 1.3661849253048140e-003
      1.9414147939635241e-003 1.8760284513751019e-003
      -7.7854873258374215e-004 -1.9084647273593367e-003
      -1.3379311678947004e-003 -2.4555050083420997e-004
      -9.2323375222310333e-004 1.2058151807335736e-003
      4.7476306640594184e-004 1.9741749484039118e-003
      -1.8259305446407669e-003 7.4362024545173474e-004
      1.7239030552928562e-003 2.0544522226201259e-003
      -2.3371641575680511e-003 -1.9662388468395702e-003
      -2.0297133346518239e-003 2.5220011150693515e-003
      -1.8781259522458007e-003 5.6291384575569189e-004
      -2.1947040777767885e-003 -8.8044178313424824e-004
      -5.5022986981450531e-004 6.0183486377174433e-004
      8.4705851289244936e-004 2.4772866193510431e-003
      -1.8557086918260795e-003 2.3710778448023761e-003
      -4.7575113827717401e-004 -1.1018142296284794e-003
      2.2128192468988373e-003 1.4699401590521392e-003
      -8.5141202710720186e-004 2.0401838969458943e-004
      1.5705319296688992e-003 -4.5764852451189584e-004
      2.2916385218403070e-004 1.4316520603308723e-003
      -6.8792424976474157e-006 -1.4507140341544182e-004
      -1.8197737746473020e-003 -2.5218236502480905e-003
      -9.3665213887658965e-004 4.6434081470141006e-004
      4.1099109264303017e-004 1.5306046641586977e-003
      2.1969916484703405e-003 1.7789308473450901e-003
      -2.1632161212588900e-003 -6.8800531807306615e-004
      2.4444843947938623e-004 -1.3132932202636759e-003
      2.1246153106221051e-003 6.6078898788868128e-004
      6.5752390486702509e-004 -2.3131265149244746e-003
      1.5763824439221047e-001 6.0507025317722875e-003
      -8.7540103431159505e-002 -1.0473168807076869e-002
      1.7651826292310701e-003 -4.6108702764991884e-002
      1.1890986317207425e-001 4.7653902330044504e-002
      5.9289465757442535e-003 8.3370240884046348e-002
      -3.9472669764131323e-002 -3.1465387131604211e-002
      7.7428787694553683e-003 4.0347208349540434e-002
      -1.5125700405518694e-001 2.2995588181985507e-002
      -1.5785084598327063e-002 -1.0064642324813407e-001
      -4.3339179642440273e-002 -1.2482708785253784e-001
      6.7345245205864702e-003 -9.1343700001711950e-002
      -2.0968097468719735e-002 2.6716111420337637e-002
      6.9864480803084855e-002 -2.2799158729978203e-002
      -3.5694442761641756e-002 3.6307976988985372e-002
      3.2003203944331218e-002 5.8659203318623274e-002
      1.7927433238835289e-001 2.7827488832828200e-003
      -8.4963385655889123e-002 -1.1403556594772907e-002
      8.9008558473864388e-004 -3.8349426973997486e-002
      1.1499167665138849e-001 4.4842385541940470e-002
      6.1852951564346972e-003 6.4651010502834769e-002
      -3.7901094123538322e-002 -3.1438246328137180e-002
      9.5297907107538080e-003 4.0590567179659420e-002
      -1.5036678492939995e-001 2.4381048079565398e-002
      -1.6710182907797713e-002 -9.7011290057409924e-002
      -4.0823041261929219e-002 -1.1435413928509015e-001
      5.0065548553069536e-003 -8.4911431159321954e-002
      -2.4203670731577111e-002 3.2686508183607500e-002
      6.4566504279359616e-002 -1.9714920524070301e-002
      -3.2635585021589697e-002 3.8886402798293501e-002
      3.5702320794442986e-002 4.2519760782060205e-002
      1.6692524519007232e-001 -2.4488654270644342e-002
      9.0240847362410975e-003 2.3958919171339573e-002
      -3.6426821016794744e-002 2.7311277990536131e-003
      5.4712621273032974e-002 -4.2839157360225069e-003
      2.8257125851077418e-002 -7.1364762262924250e-002
      -4.4197056148497131e-003 -2.0032021448124545e-002
      -1.8328520951443345e-003 7.3068665871132412e-003
      9.4010704853304226e-003 2.3207854168076542e-002
      -8.7514760655031977e-003 -2.0652657498603684e-002
      5.1160774835782444e-003 1.6231486360575073e-002
      2.8931848477974965e-002 4.5838657367098377e-002
      -7.2726835378100499e-002 1.4434958034511995e-002
      4.0507388611628475e-002 -4.7615530945455967e-002
      1.4974312776542058e-002 2.0389518974137395e-002
      -2.6520491452860142e-002 -3.3822074385036302e-002
      1.6882473703843814e-001 9.4869166147630250e-003
      2.6638736173057120e-003 3.9198918357339803e-002
      -2.6461820428637411e-002 -3.0301502296422277e-002
      7.8502382460413134e-002 -2.1787415912323155e-002
      4.0744646988114294e-002 -2.9067883729226522e-002
      -7.8220630094413060e-003 -1.2431777680450541e-002
      7.7515318590398816e-003 5.8117518165440210e-002
      9.5180557480049627e-003 4.3904707218652882e-002
      -1.5065330439753451e-002 -1.7389741215071822e-002
      1.4712050890993145e-002 2.7218848687858170e-002
      -8.3926932569503062e-003 2.5832428072380127e-002
      -3.9824301668109900e-002 -5.6450041503392310e-003
      4.0494863138486818e-002 -1.9170634700901669e-002
      -8.1979072810701731e-003 -1.0554255733359609e-002
      -3.3687201235231751e-002 -3.3882704495234251e-003
      8.0813040286747448e-002 1.0106784508923283e-002
      1.7589361035045104e-002 -2.3996281102202596e-003
      1.4669898338821426e-002 3.6396889146758696e-003
      4.3175468579076649e-002 1.8559648011030327e-002
      1.6229368219798094e-002 -1.0421874129487523e-002
      -2.8678810593934199e-002 -2.4340985832176903e-002
      6.4471127147308106e-003 6.3235619777394971e-003
      -2.6528866354110958e-003 -3.2377504232214749e-002
      -2.0800824989927996e-002 -2.6013108473895347e-002
      1.2121990581634934e-002 2.0335174600997668e-003
      2.3792150601574493e-002 -2.9202621110938368e-002
      1.7731689893819378e-002 -6.0747181623978130e-002
      -7.4791388797460154e-003 2.7856416998715324e-003
      -3.1336133873652430e-002 8.2899334593708098e-003
      7.3221119923874527e-003 -4.9839463049344314e-003
      3.7737648731602479e-002 -1.2959049669518484e-002
      1.8804684707242031e-002 -1.5503607724697303e-003
      2.8283495848180455e-002 5.8610048704011569e-004
      1.2168037906551347e-002 9.1717902631251562e-003
      9.0246676451383786e-003 -1.2667747713040627e-002
      -2.2433641791939872e-002 -1.9339014140875323e-002
      1.7652589056998732e-002 -6.8851329961909791e-003
      -2.2245672400513223e-003 -4.3917852114283805e-003
      -4.7429539498449157e-003 2.3605604599681203e-002
      2.5245307977546944e-003 -7.5661789150559978e-003
      -9.5534426002107781e-004 1.7396321928675803e-003
      1.5848976809323088e-002 9.3958578183067718e-003
      -2.5940902378225564e-002 -5.8344751523372431e-003
      -8.9624620777235195e-003 -8.2314880568003356e-003
      -6.9326438593879615e-003 -8.3910924365542829e-004
      9.5912993909187914e-003 1.1790574084198990e-002
      1.6487810168289242e-002 1.4002092544301455e-002
      8.3335103285521583e-003 2.4649617286221923e-002
      -1.0860311924562072e-002 -2.5796036360690921e-003
      4.0830825194799775e-002 2.4215802523193469e-002
      -3.4823123605658368e-002 -1.6225709140095992e-002
      -2.1839651906100408e-002 -9.1687709423235505e-003
      2.8357324631160300e-003 2.7415638882039704e-002
      1.3326510779051124e-002 -2.5748743460221438e-002
      -2.7387862899309855e-003 -2.9769261340040248e-002
      1.4883528677004953e-003 3.8920898834853690e-004
      3.0672813970185047e-003 2.8709888014037590e-002
      -1.9697349636300042e-003 3.5264848554692127e-003
      5.0198273224304436e-003 -2.4189606746578263e-002
      1.2021588201641294e-002 2.0528845019013087e-002
      1.8652699244458048e-003 1.3174524921143656e-002
      2.4799692899192135e-003 7.7646894938813030e-003
      2.1204029439870535e-002 2.4362176489611701e-002
      2.1707886315827122e-003 -1.7517110010821131e-002
      -8.3185673275287999e-003 1.3700636626075749e-003
      -3.2291492016743042e-002 3.6006849119669835e-003
      -3.0011200236414935e-002 -1.7969304082402632e-002
      9.9206853448331528e-004 1.9043181983171762e-002
      -1.0334239783622357e-002 -2.5862315034847006e-003
      4.9121972409492450e-003 -9.6775009508314937e-003
      9.4906003939812626e-003 -4.8396222669307813e-003
      -9.9781688152583183e-003 7.8802210805762191e-003
      1.1222698892827204e-002 9.4172433952273080e-003
      3.9922709424650253e-002 -3.5521411093150053e-002
      4.7083753026972482e-003 4.0691237257106459e-002
      7.4946306784844055e-002 3.3808985746403918e-002
      2.6851515392530077e-002 -3.2604663094462909e-002
      1.2390064648672764e-002 2.4974364204770550e-002
      1.0112452620106595e-002 -2.9258118888622068e-002
      1.6592060955279370e-003 -2.8906199777894798e-002
      -3.0765357355509396e-002 1.5441014712431061e-002
      -2.3181833268023041e-003 -3.1557707339608221e-002
      -9.7829617459383941e-004 5.3706289946429599e-002
      1.3919294922814747e-002 1.0803423959210804e-005
      4.6265660545845785e-002 -2.4126464029822655e-002
      2.1056166465300202e-002 -2.7774887532535410e-002
      -3.9149074620723590e-002 9.1237021330520095e-003
      -1.1812763886251064e-002 -7.9379871977760599e-003
      2.8827478199357631e-002 6.5623012129965609e-003
      -3.1906688402644247e-002 3.2436968292580283e-002
      9.3541394902306896e-002 1.2660811658489970e-002
      8.7854658769267509e-003 -2.7042633404308125e-002
      3.1161898085351285e-002 6.5183696568464122e-002
      4.8068424995265152e-003 1.3266494354711406e-002
      -8.9435986480818214e-003 -1.0840672228871244e-002
      -5.5257640290819407e-002 1.4818359021901017e-002
      -2.7660713699443680e-002 -6.7410305370655774e-002
      -1.8140702432323083e-003 1.3052910099485926e-002
      1.4013533993354256e-002 -1.3734375682313196e-002
      -5.4549883201192986e-002 -1.3417213283581676e-002
      3.1910510757635145e-002 -2.2446572554515782e-002
      -1.5613428258782768e-002 -1.2108259243357443e-002
      -1.9803805769678384e-003 1.6692478707870845e-002
      1.6030209912174728e-002 -1.5618552024515708e-002
      -3.8718867443867246e-002 5.7729276778060973e-002
      2.3295786881978042e-002 3.2141617821266032e-002
      -4.4248976505136831e-002 -3.1831374026655770e-002
      2.5982917772755035e-002 1.0382711466228647e-002
      -1.5767191964930000e-002 1.4505059230532991e-002
      4.5769166697877681e-003 -1.5816451378629342e-002
      -6.0943970439848970e-002 1.4339060957103618e-002
      3.0713792512522761e-002 4.9860923254447707e-002
      6.9741522595884757e-003 -7.2414663941280863e-002
      1.5817682076144592e-003 8.6080441587972761e-002
      3.8213583081762315e-003 2.2091199889838455e-002
      -3.5593241776726112e-002 -1.1758332223603292e-002
      -6.6678122510920340e-002 1.6553731046106224e-003
      1.5974768014666865e-002 2.4606796182808110e-003
      -2.4628361919539665e-002 -2.8748921763449556e-003
      -2.9351221015044664e-002 2.9720182000606738e-002
      5.4374794247971973e-002 -1.1917118971651347e-002
      4.3175306983706782e-004 -7.2951382371981366e-003
      1.4617049036858442e-002 -1.7329949364525707e-003
      2.2778484829990463e-002 -9.3966711813947036e-003
      7.1232031229292300e-003 1.4317384214478843e-003
      6.6333507857297067e-003 9.4154025466040793e-004
      -7.9470824239955926e-002 1.0888030047827206e-002
      -7.8052600309611213e-003 6.0795140849819310e-002
      4.9771856325175313e-002 -5.1676449379411238e-002
      -2.0464598336799571e-003 2.1705608372086091e-003
      1.4658456059902869e-002 -3.9960039383910941e-002
      1.5129288898685977e-002 9.1104855124441129e-003
      2.7509787291366574e-002 -1.9673821281577693e-002
      1.6130188097604244e-002 -5.2750812584206651e-003
      -2.9158266269677147e-002 2.5568072050618125e-002
      -2.4520497124404230e-003 3.2257353604729103e-002
      -1.8351181494043394e-002 -9.2835982980503939e-002
      -2.1115068773380163e-002 1.3513905323490130e-002
      3.1126041649514852e-002 -3.5855280662107060e-002
      -7.0830034013504980e-003 -4.6020571515135340e-002
      3.3394668383526567e-002 -8.2506428952361363e-002
      -5.7848403157567695e-002 1.5615149265573986e-002
      1.9568462415052367e-003 -1.0402143924482800e-001
      -3.4000500489516999e-002 -3.8169685314824162e-002
      9.2202392395042798e-002 -2.0535068869332190e-002
      1.2012777063305879e-003 -1.4400938782265877e-002
      -7.1532133403481343e-002 -4.8572680833656963e-002
      2.5701766852780694e-002 -1.6871493743402115e-002
      -2.9916921776771670e-002 -2.2006270719898698e-002
      -4.8629948439722383e-002 -1.8675210251008410e-002
      -1.9502898991257039e-002 3.5512626032137514e-003
      2.1872438979788460e-003 -2.0156958368259113e-002
      -1.0828491348559937e-002 2.1742051319086807e-002
      1.7222635321390362e-002 8.4784382460826851e-003
      -8.9840601768307674e-003 -2.6283336788405991e-002
      8.1353062357502458e-003 -5.1379499426905478e-002
      -1.1778709050403787e-002 -1.2448830093131577e-003
      1.0702815512971232e-003 9.2670112972307282e-004
      8.7276323806064864e-003 -6.8991167183008323e-002
      4.6804291629219209e-002 -1.8809694032702766e-002
      1.6732769711259973e-002 -1.9407776006291736e-002
      -1.2363038332685858e-002 -2.0938118187901422e-002
      -1.5920901567601085e-002 -3.1672729215533671e-002
      -6.8953879201580246e-003 -2.9805191211320223e-002
      -3.1719348055950558e-002 2.7569779537421818e-002
      -3.8191609959922400e-002 7.7453780681299694e-003
      1.5215632603780550e-002 -1.5804175056715296e-002
      2.1267069672818693e-002 1.4854817443271042e-002
      -1.3298886066902026e-003 -2.7404701670242903e-003
      9.6415486999316437e-003 2.5114501393559814e-002
      -2.0177153915689226e-002 -1.3548130731658614e-002
      -3.1294011111873743e-002 -6.9241823576356703e-003
      -2.3133069397720862e-004 1.5882294797134190e-002
      -1.5973669704423574e-002 9.4609466330945712e-003
      -2.1159125688459023e-002 9.0809272961987469e-003
      7.7419629602254120e-003 -1.1668686084722302e-003
      -5.5723042962422245e-003 1.7199398238592570e-002
      7.8888603965475302e-003 1.5295150175572238e-002
      1.8977041305313417e-002 -1.0417321542185373e-002
      2.7770420679590471e-002 2.5664450384534881e-002
      -3.1897128842378900e-002 -9.1026234486217845e-003
      -2.7753673811721901e-002 -1.3539235200560327e-002
      3.8076479769832815e-003 2.9232678446588851e-002
      2.1311173959419356e-002 -2.8680277051818838e-002
      2.8096186416964722e-002 3.4523501699605143e-002
      -3.7834999078356982e-002 -2.9211420876311130e-002
      -1.9975347677150243e-004 -2.2295930480827977e-002
      6.5439850123230701e-003 3.9890561720691491e-002
      -1.5656973822945973e-002 -3.7042927964489264e-003
      9.7719485442349843e-003 3.2810890114749601e-002
      5.6713106141389859e-003 -1.7104757241929787e-002
      8.0179540448070147e-003 2.0867764608378286e-002
      1.0639154530400189e-002 3.2118908086997432e-002
      -3.2970613311287797e-002 5.5769125644014317e-003
      4.6352384386430245e-002 1.4472452528674256e-002
      7.8774829610257346e-003 1.0708688069102572e-002
      -6.0832651556228440e-002 -6.9383561092394661e-003
      4.8074053171487816e-002 4.6611027399805376e-002
      2.3839780672910454e-002 -4.3707304019113526e-002
      2.7623995389963425e-002 1.2541870600546864e-002
      -1.7388853539280748e-002 -1.0795846511794800e-001
      -1.0833354304618381e-002 -5.5630040715858239e-002
      -7.5331605027718551e-003 3.3317271131192767e-002
      -9.5623547615162805e-004 -1.2193837208573387e-001
      3.0992934268159668e-002 2.8747725116795173e-002
      3.7565707515455217e-002 -4.2092946090994482e-002
      3.8992761984844422e-002 -1.8389849367184572e-004
      -6.5953888067759941e-004 1.5147628214575324e-002
      -1.1332105060251289e-002 2.1434959511832372e-002
      1.1127854803951502e-002 4.2935044967721922e-002
      9.8322829022612399e-002 -1.0441798523302476e-002
      4.6902919988032529e-003 -2.9944002721904527e-002
      3.7954977554132664e-002 7.3754732396608319e-002
      3.3246936518682687e-003 -3.4663769164910013e-002
      1.8581258363224096e-002 8.6628735596020218e-002
      -6.5087982071661641e-003 7.8426120425352606e-003
      -3.7047493358913927e-002 -5.5139456441693512e-002
      4.3086370816272654e-003 5.0833030682697726e-002
      -4.6555066636134262e-002 -3.6514799345388226e-002
      1.1991242945925136e-002 3.7305645743987016e-002
      -1.0149800501537356e-002 -4.0598066320104882e-002
      3.9113462451770935e-002 2.1925801500533346e-002
      -9.3379148664839134e-003 2.8649550494792880e-002
      4.2991753767325683e-002 -8.7198289012353786e-003
      4.3637106501939700e-002 -1.9781986353096890e-003
      2.5790380664105578e-001 1.0686994992677242e-002
      -3.6162887648111243e-002 -2.4904001644494852e-002
      -4.7864054803348981e-002 -1.2142607970666717e-002
      8.6665165827535168e-002 2.5428407663830484e-003
      2.3892837838094736e-002 5.6338836106782364e-002
      -4.6687681225645750e-003 -3.9353291592785777e-002
      -4.7521963968101280e-002 -2.1974247672061478e-002
      -4.1150112445553735e-002 2.5019287027742275e-002
      -4.4299695971896286e-002 -2.5793931891265769e-002
      4.0304491045707998e-002 -6.1471641708565908e-002
      2.1979884680145709e-002 -3.5701406997249233e-002
      3.6013833184929795e-003 2.3329091606658220e-003
      5.6511823764349885e-002 -3.0388398824942538e-002
      1.5102368725481916e-002 2.6071406913627745e-002
      9.1741850950919513e-003 6.7225098799575278e-002
      5.2939992744305664e-001 -2.0078937952873119e-002
      -7.1450354476689334e-002 1.6657247096402920e-003
      -1.7128325501741923e-001 -1.3682619342696303e-001
      2.0138325795898449e-001 3.9097668671816577e-002
      5.0651470654536047e-002 9.3941757093944506e-002
      5.3048397204161525e-002 -1.1271153531446154e-001
      -1.0964594697352380e-001 5.4752073266079629e-002
      -1.3330614188786333e-001 2.1991179399049866e-002
      -8.0130545504648307e-002 -3.0121816447233701e-002
      1.1081953133813661e-001 -1.7593116181871954e-001
      9.2580180629341022e-002 3.6925109488607333e-002
      -6.9916901780477186e-002 -1.8852207486372695e-002
      1.1271009014175197e-001 -1.2743274369012170e-001
      1.1263965274456630e-002 7.2862673233104844e-002
      3.3969213698977263e-002 1.8027817620222764e-001
      -7.1767749264342454e-004 -2.2013487770660067e-003
      -1.2908968984583105e-004 -1.2082100701739731e-003
      1.2999188819735254e-003 -2.2272011138761917e-003
      8.5173981194804570e-004 -7.9111968335685099e-004
      1.3453505977915991e-003 -8.0736589409045726e-004
      4.9572008014307442e-004 5.9038086749316058e-004
      1.0756094858699258e-003 -7.8599214764929742e-005
      2.3859395871935140e-003 -2.4621537546451488e-003
      7.1414403872901413e-004 -2.1501018191087745e-003
      -1.1925464095250866e-003 4.0501536569807794e-004
      1.4405166190664081e-003 -1.1520601362145391e-003
      -4.9207152653887485e-004 3.0369113895654406e-004
      -7.8049695566517654e-004 -2.3875985880640899e-003
      1.6968620891842977e-003 -1.0879383190162573e-003
      1.6555057974800733e-003 1.9774733756771686e-003
      -2.3186190408730914e-003 -1.1481768115812747e-003
      -2.3957528295516541e-003 8.1477858368153024e-004
      1.6162164093209100e-003 -1.2324033075654314e-003
      5.5702880153970656e-004 2.7989358316551352e-005
      -6.7587166761139974e-004 2.3002794730872787e-003
      -2.0159167533900443e-003 -2.4200130461303894e-003
      -8.0033172987654705e-004 1.2526521400967403e-003
      6.9718479329034791e-004 8.2867189896107659e-004
      -1.9281980338288196e-003 -5.2170268578171601e-005
      -2.7378349092488759e-004 6.5133571105528492e-004
      3.9902567557373818e-004 -4.7129697344125833e-004
      3.2047674453817264e-004 -2.2931192689545823e-003
      2.2709683736236025e-003 -1.8252328780213108e-003
      -1.8129570029149462e-004 -1.2876202909630197e-003
      2.0770149604179464e-003 -1.4528379345272141e-003
      8.8453520933550432e-004 -2.5399744899387597e-003
      -4.3838408157373570e-005 9.5201568271382239e-004
      2.5243701024111019e-003 -1.5657318377634343e-003
      1.6333317814173148e-003 -1.1773673957790737e-003
      8.1126595448112492e-004 8.7091440825385022e-005
      -1.0894953917399055e-003 -2.0159300426431971e-003
      -1.6216906607234391e-003 8.1387628379363968e-004
      1.3450615641742440e-003 -1.3063302220136753e-003
      8.9746934684978947e-004 5.8210198294826154e-004
      3.0428049129403592e-004 -1.6768254351728663e-003
      -1.2137143263254680e-003 1.8567649929991561e-003
      1.0302900187482114e-003 -2.3802167167096024e-003
      -1.1192578614772873e-003 1.9512340189501052e-003
      -1.8069774380496124e-003 -2.2882862662558707e-003
      1.4327779212622218e-003 -2.4026783319620205e-003
      1.3651303017381765e-003 7.3747654833622033e-004
      1.0618483670935283e-003 1.1177272412847925e-003
      5.5160535070703908e-004 1.5459323031063474e-003
      -1.5596239532613121e-003 -1.6285416180879932e-003
      2.1924207049575763e-003 -5.2937124473805670e-004
      9.9933668022250026e-004 1.7813259903243226e-003
      1.6835579942556778e-003 -5.0656763419242620e-004
      1.4009014174771372e-003 -6.0353694082771023e-004
      -6.2131168833541627e-004 -1.5798313729833157e-003
      2.1890910996168197e-004 -3.8859785407962903e-004
      9.0653662576532746e-004 -2.4001556661176881e-003
      -2.4032761231652894e-003 -1.4000418800032196e-004
      6.0660735039654544e-004 -1.8994694736986437e-003
      8.3539016807814232e-004 9.5623739493647911e-004
      1.2470979789544199e-003 -1.3525161278065633e-003
      1.1433487698548335e-003 1.6306549928775300e-003
      -1.6600860751312082e-003 1.4005453545268094e-003
      5.9487861770095773e-004 -1.6912038810031427e-003
      -1.1925308375629387e-003 2.4225681777359401e-003
      1.4854382460654627e-003 -1.7029625321978140e-003
      -7.6047296591924204e-004 9.4121770577206996e-004
      -2.0078628177650466e-004 -2.3084463908182246e-003
      2.1649341992783129e-003 -1.5798469812624161e-003
      -2.4457022767452230e-004 -8.7711106665676482e-004
      8.4009371108516198e-004 1.2470948649673714e-003
      1.4132751362926177e-003 1.3866265035589514e-003
      2.3588693744723125e-003 2.0314396804674011e-003
      -1.4925820635331403e-004 5.3248980379044320e-005
      2.1907470219519076e-003 1.9270263862606030e-003
      -2.2755652992425758e-003 2.0660410050698898e-004
      -1.9032307046960403e-003 1.6707762479479978e-003
      1.1880375974485248e-003 3.4894819231863825e-004
      -2.0576643736647756e-003 4.8004707372084386e-005
      8.9347029627766987e-004 -1.3490275790089268e-003
      -2.2395203170734674e-003 -7.6454565620692289e-005
      -1.9990451293166699e-003 -1.5734237366835375e-003
      7.2643260593135094e-004 -1.4711839249790235e-003
      -5.9774958049317746e-004 2.1423828890747493e-004
      8.6135659581794356e-004 -1.0819966437205129e-003
      2.3402624338469120e-004 -1.1967418653817403e-003
      1.7452787437725761e-003 -7.4379450493604121e-004
      1.7964400444058363e-003 -4.0101104596592735e-004
      -4.3615288814284484e-004 1.8352438266894227e-003
      7.5704989950475603e-004 1.5536256477540103e-003
      -3.9321682315027055e-004 6.7320600281275728e-004
      3.3862265117587900e-002 1.6879159132955332e-002
      -1.3461351171421462e-001 -4.3256467589957333e-002
      1.8534201215206730e-003 -1.0487780972066789e-001
      1.4517511409076206e-001 1.2328810830811907e-001
      2.3009583992800130e-002 6.5267876446016532e-002
      1.1772203985304493e-002 -1.6287249618413820e-002
      -1.7340019185505349e-002 1.2635939165951692e-002
      -4.1692527638081622e-002 -4.8343733899657251e-002
      -1.4063856265105923e-001 -1.7780046002544819e-002
      4.7169181967688753e-002 -1.4700276011925817e-001
      -6.4472398827817676e-002 1.0890577692386649e-001
      8.6231411829375951e-002 -6.5792978975056440e-002
      9.1948610472259273e-002 -6.9301531927313559e-002
      2.7246025399014807e-002 8.4127555324287784e-002
      -3.1823314596481828e-002 3.9921216288515048e-002
      8.9165536643464727e-001 -7.3198662777089890e-002
      6.9492965279572078e-002 -7.5751143972328308e-002
      -1.3391756049885487e-001 -1.2496495592196948e-001
      1.2121305015891062e-001 -1.1357780084760870e-001
      7.0700140513963693e-003 3.3966893677003290e-001
      5.3725935443808812e-002 -3.8717217954805781e-002
      -1.4559910232861309e-001 6.5557601928971490e-002
      -3.2470693181786442e-001 -1.3781718798672019e-001
      5.7599815357645037e-002 -7.7414711643419107e-002
      2.3284141759611973e-001 -1.5142628093665511e-001
      1.4482108917924286e-001 8.1857275074485758e-002
      -1.3983285780930826e-001 -1.5271456472805994e-001
      6.0800450629931981e-002 -1.2390840915685325e-001
      1.6292734204751804e-003 6.1419328511921299e-002
      2.5180934709849490e-002 8.6178238714499450e-002
      1.9144218487075382e-001 4.4837138586444905e-002
      -2.1114651210954218e-002 5.6611932453552458e-003
      1.1097994761392152e-002 -6.4020429135528082e-003
      8.9349269205434376e-003 -1.6404913270202204e-002
      1.4879255397937628e-002 1.1429733961319853e-001
      -6.1264005114494667e-002 -1.4654600703004925e-002
      1.4088794963293360e-002 -4.6684712938551316e-002
      -6.7216179994240843e-002 2.6183148564969155e-002
      -5.5803800213452080e-003 -4.4716110214259482e-002
      -8.7438344482252350e-002 -7.2007986864567955e-002
      5.4465417890837101e-002 -3.1214761856169049e-002
      1.9204269563405923e-003 -4.9871921453842165e-002
      -1.0560787897737912e-002 -2.5701319653550912e-002
      -3.9876106357833035e-003 4.9492785752547189e-002
      9.0655804028762967e-003 3.6094782472823099e-002
      8.8881640532545478e-002 9.4630631947923427e-003
      5.1425177626094019e-003 6.9310117656325382e-003
      1.0374299828108243e-002 8.7673278136833014e-003
      3.4334435650537218e-002 -5.6801805757353266e-003
      2.1591732016663243e-002 2.3962488222767121e-002
      6.6359927497722606e-004 -2.0869726215522562e-003
      -1.0764746014656872e-002 -1.2814941332131789e-002
      -6.2034665440941321e-003 3.0357306249058986e-002
      -1.3869616626355963e-002 -4.0891808098849465e-002
      -1.1451154643424378e-002 -4.3427344641580247e-002
      -5.8910721006590052e-003 -2.2330801985641916e-002
      3.8613842155269425e-002 -2.5995164762156460e-003
      -2.5550411450434036e-002 -3.1657006748396305e-002
      -1.6733222941104804e-002 -9.2820484479494800e-002
      7.4476165421011424e-003 3.1572276634646852e-002
      5.7327942051193632e-002 -3.4811438465970242e-002
      -1.4812491588133512e-003 -4.4842606108373385e-003
      -3.6990165326683921e-002 1.3861642111555357e-002
      -1.8679011510548050e-005 -3.9968224431705654e-002
      -9.8025689448322795e-003 1.6081097461319062e-002
      3.2358949241281850e-003 2.3301152327475847e-002
      -1.7358624054087012e-002 4.3341412843044026e-003
      2.5378527410587315e-003 1.6129191552840930e-002
      -6.1452416167075238e-002 2.1213759616711049e-002
      3.1468673710954298e-002 -2.4532551311482010e-002
      -6.4795878435422788e-003 3.1020380856214974e-002
      -7.6570659745472808e-003 -1.2386060669685370e-002
      -7.0190119179458416e-002 -1.0299474144183630e-002
      2.1909501213262395e-002 -2.0341872708716735e-002
      7.5401662816941568e-003 1.7694016987776052e-002
      3.6557989126189003e-002 -1.1419558631745839e-002
      -3.3199967297008748e-002 1.3403313081889058e-002
      7.3237546409846378e-003 3.5616798788971477e-002
      2.0421308551152022e-002 -1.8115846618931144e-002
      1.0204529236798111e-002 2.9800810564509692e-003
      6.6822771280636234e-003 -4.7574793694442263e-003
      -4.0866697427828634e-002 1.8732624325548772e-005
      4.2816271280888959e-003 2.9297354797072475e-002
      5.9033105896406197e-004 3.6766815754403245e-003
      2.2845576046388129e-002 -6.0436263333504228e-002
      1.2369538084032326e-002 6.2549452011773105e-003
      6.5341322971433895e-004 -1.0324114188401751e-002
      -2.5225207617379852e-002 -6.9470577760125350e-003
      3.5343044191767210e-002 -4.5562741598155236e-003
      -2.7808203676209350e-004 6.0187942633622302e-002
      7.4650536957893724e-003 -9.4357821309614439e-004
      -1.1544338643918782e-002 9.7514499622962623e-003
      -9.9631040215948669e-003 3.7489667784234543e-002
      2.8019112379874072e-002 -1.6943906277368664e-002
      4.9279586624870982e-002 1.4343046792926094e-002
      3.1040573709926460e-002 -3.4337294670646119e-002
      1.2566590462262885e-002 -1.5997955684745368e-003
      -1.0461841693759948e-002 -2.0482015391363934e-002
      -6.7747717540264695e-003 -3.3780673200357637e-002
      -3.8592163302727814e-002 -3.3058278103351636e-002
      1.0016283321529512e-002 -1.0326462629528870e-003
      -1.9361680680342479e-002 1.9617522549024671e-002
      3.4467832051294028e-002 -1.4590638293895036e-002
      2.8771962085123198e-002 6.4040492167252550e-002
      3.1395638388407983e-002 4.0111099832060043e-002
      -5.6318641350085831e-002 2.8292450377002842e-002
      -6.3600039710567735e-003 2.4012774259502927e-002
      1.9015467616052450e-002 5.4805684131231849e-003
      3.4731730145945383e-002 -4.3499768384541504e-002
      7.9998152999262176e-002 2.0347288206386826e-002
      4.5181666378010306e-002 -1.8435175307976559e-002
      2.4518915699208752e-002 -1.6509527737040022e-002
      -1.3769327459565491e-003 9.9804667018699458e-002
      -2.4656492403827210e-002 -6.4984619236937324e-002
      -8.6530688984585956e-003 -3.0566867318793402e-002
      2.2362987805480856e-002 2.4310968073588846e-002
      -2.7753440068029610e-002 1.3962183483620865e-002
      2.5022858633320103e-002 2.2585402696564772e-002
      -1.7538318346811844e-002 3.7459801401552202e-002
      5.8895877729758787e-002 -6.8156217828566059e-003
      -6.2751656746520085e-002 4.2841466924048700e-002
      -5.1911168059639301e-003 7.7687641708471793e-003
      3.8972488659761093e-002 5.2294600454669438e-002
      2.1812415682486739e-002 -2.7216232227792334e-002
      1.0772847345267340e-001 2.0258288928147062e-002
      -2.5202741668121954e-002 -1.0522027025493583e-001
      -4.4612341352755901e-002 -3.2946456154070360e-002
      -1.0534885942495034e-002 3.3342836735602441e-002
      1.4660721529793103e-003 -1.0679040524928832e-001
      -8.0521031067007254e-002 -1.4594227466114228e-002
      8.3997937322788166e-002 6.5781415944060487e-003
      -2.4815628710707052e-002 -3.6391009326299101e-003
      6.4819720945830897e-002 2.0026259224743020e-002
      -1.1961912969918878e-002 1.7473262404677536e-003
      -6.2484901430823947e-003 3.9476893586418121e-002
      -9.2147441655955259e-002 8.3013514990952511e-002
      -2.0685507325541252e-002 -4.0598997505750516e-002
      -1.3745852276264589e-002 2.7691341636374732e-002
      4.4966013648074753e-002 -1.7433422944478198e-002
      1.9176031774371194e-001 4.4057964051483420e-003
      -3.7712621769480099e-002 -9.4785741503201348e-002
      -6.9194486875060857e-002 3.0292895441908513e-002
      4.4870693902057026e-003 1.3647457106333040e-002
      1.4248840294153112e-002 -6.8519889126652272e-002
      -3.3701058056770880e-003 -2.2915941451029504e-002
      8.3555366628285208e-002 -2.4023477075901866e-002
      -3.2815519438580805e-002 -1.9311221839390963e-003
      6.8726874873969016e-002 -7.2412819647041902e-004
      4.5157654812799632e-002 -3.8214324689770728e-002
      -2.0092723723714366e-002 4.6308169125712090e-002
      -7.1685761656168787e-002 7.1739189654216787e-002
      -5.3915082641453359e-002 -4.2817260936671563e-002
      -3.0511730695147406e-002 6.5646033185822655e-002
      5.6392943967927212e-002 -1.5563254730455422e-002
      1.9858098009321284e-001 -2.2042763667512504e-002
      -7.6799879054309820e-003 -1.3761580044198354e-001
      -8.4094397576623195e-002 -8.4984718448758052e-003
      4.9844485512751269e-003 1.7054603391109723e-002
      -5.2716568860603344e-002 -1.0653431613571768e-001
      -1.3884038869910527e-002 -4.2822645450569269e-002
      9.7960037582271439e-002 -2.6661726639260065e-002
      -9.9136638474895070e-003 -3.2482516954412399e-002
      6.3317445151372317e-002 3.8127988911151964e-003
      5.7775572346137199e-002 3.7843966062765654e-002
      -2.5851112620914787e-002 5.5437971519231327e-002
      -1.0914562750277552e-001 7.6714920982513229e-002
      -4.2967179796612597e-002 -3.4581300165775201e-002
      1.5661277517734128e-002 5.0235376712786627e-002
      1.1461115332542686e-001 -4.7354676797450583e-002
      1.7032908945657199e-001 -1.4490372206676198e-002
      -7.0939860794306309e-002 -8.5306573754527937e-002
      -8.4808904563051374e-002 -6.6333867763626129e-003
      5.4632460889415977e-003 8.9628478987239357e-002
      3.9475997518576816e-003 -8.8971517216876725e-002
      -1.3845739866532062e-002 -5.6930661291479251e-002
      7.3794231815893979e-002 -9.3201387159739194e-003
      -8.5395940331040116e-002 1.4645616860445522e-002
      7.5495003016933696e-002 1.2777652999256921e-002
      6.3332022254829604e-002 1.0246731355753495e-002
      -2.5840407218749032e-002 4.9407206895267647e-002
      -1.5382228819416516e-001 7.1255527497991342e-002
      4.2268805177409332e-003 -3.1836490643838138e-002
      -1.4246708809319268e-002 7.8992875300090803e-002
      3.0200660486581175e-002 -4.2215212067672807e-002
      2.1697937527802677e-001 -1.8850545806745962e-002
      -8.2906162834275571e-002 -2.0100987710969168e-001
      -9.7671005853974660e-002 -3.8341939972091565e-002
      -1.4206747249007716e-003 -1.7137417747538037e-002
      -1.0067472721458630e-002 -1.2380528393051540e-001
      -5.9017349389306410e-002 -5.8964292308579427e-002
      7.2237880346346567e-002 -2.1300975521991204e-002
      -7.6182287635784031e-003 -3.1383018541697158e-002
      2.1152536551302850e-002 1.7608078739319414e-002
      2.9208039110530895e-002 2.1579067203251728e-002
      -4.4700317187639275e-002 6.4162080190457979e-002
      -1.4842925367992815e-001 6.3161609330023030e-002
      3.7089126564350074e-002 -3.1435034900819422e-003
      -1.4196940535014830e-003 2.5473266888316123e-002
      3.9778132966085573e-002 -4.3829004962857236e-002
      2.4736659297434016e-001 -2.1695494548297795e-002
      -8.3348979276827620e-002 -1.0935666356676976e-001
      -7.0387200689504395e-002 2.0951139446603081e-002
      4.6298484872458875e-003 -1.2517422260941175e-003
      2.9469631449022950e-002 -1.0355377498088936e-001
      -6.4948926516539968e-002 -3.2162187044759420e-002
      3.9725615126097381e-002 -6.0844390585093361e-002
      -1.7583995589145744e-002 2.1233453017944163e-002
      7.1378678128563744e-002 -1.3707032047577013e-002
      -1.3488607197150320e-002 1.9295084566876661e-002
      -2.1476790125764183e-002 2.7250529039658852e-002
      -1.0171856125710312e-001 8.4664299406007462e-002
      -7.6889513518719216e-003 -3.6734370003644538e-002
      2.0405357565624928e-002 7.5030546290283787e-002
